################################################################################
# Neural network connection values (weights and biases).
################################################################################
# Col  Name       Description
################################################################################
# 1    connection Neural network connection value.
# 2    t          Connection type (a = weight, b = bias).
# 3    index      Index enumerating weights.
# 4    l_s        Starting point layer (end point layer for biases).
# 5    n_s        Starting point neuron in starting layer (end point neuron for biases).
# 6    l_e        End point layer.
# 7    n_e        End point neuron in end layer.
################################################################################
#                      1 2         3     4     5     6     7
#             connection t     index   l_s   n_s   l_e   n_e
############################################################
  2.4207531946045355E-01 a         1     0     1     1     1
  1.6964377114318760E+00 a         2     0     1     1     2
 -8.7392559753326027E-01 a         3     0     1     1     3
  2.8916266605489904E-01 a         4     0     1     1     4
 -8.0341033878773016E-01 a         5     0     1     1     5
 -2.6548224295942173E+00 a         6     0     1     1     6
  2.3652599286354578E-01 a         7     0     1     1     7
 -5.7211949310116905E-01 a         8     0     1     1     8
  1.0170434845820269E-02 a         9     0     1     1     9
 -1.6149870061365492E+00 a        10     0     1     1    10
  7.6840325538354481E-01 a        11     0     1     1    11
 -2.1136639874316856E+00 a        12     0     1     1    12
 -2.5129436803800833E+00 a        13     0     1     1    13
  1.2300401759332302E+00 a        14     0     1     1    14
 -2.1262125150175000E+00 a        15     0     1     1    15
  5.7270804792011507E+00 a        16     0     2     1     1
 -2.7082070697965714E+00 a        17     0     2     1     2
 -2.4453637224038607E+00 a        18     0     2     1     3
  4.5590426826006194E+00 a        19     0     2     1     4
  9.8083571596289676E-01 a        20     0     2     1     5
  4.4876793206122141E+00 a        21     0     2     1     6
  5.3972244528941733E+00 a        22     0     2     1     7
 -1.7655224501436007E+00 a        23     0     2     1     8
  2.6585181293414273E-01 a        24     0     2     1     9
 -1.5624620213337908E+00 a        25     0     2     1    10
 -4.8261270314804454E+00 a        26     0     2     1    11
  3.1896893353844047E-01 a        27     0     2     1    12
  8.8981467066964681E-01 a        28     0     2     1    13
 -8.7596559884122527E-01 a        29     0     2     1    14
 -2.3877682993514027E+00 a        30     0     2     1    15
 -7.6380559008981264E-01 a        31     0     3     1     1
 -1.5636612543638981E-01 a        32     0     3     1     2
  7.9673346972822368E-01 a        33     0     3     1     3
  7.1266479838544983E-01 a        34     0     3     1     4
  9.3078625636113443E-01 a        35     0     3     1     5
  4.3286277420093833E-01 a        36     0     3     1     6
  4.5710165292412834E-02 a        37     0     3     1     7
 -1.0982604878904266E-01 a        38     0     3     1     8
 -5.2873231524780717E-01 a        39     0     3     1     9
  1.3115967904941843E+00 a        40     0     3     1    10
 -1.3287365010088836E+00 a        41     0     3     1    11
  4.1724002769163403E-02 a        42     0     3     1    12
  1.4157899329045913E+00 a        43     0     3     1    13
  5.2224945100241871E-01 a        44     0     3     1    14
 -7.7322505981136436E-01 a        45     0     3     1    15
 -2.7118166475971019E+00 a        46     0     4     1     1
  3.9112613548944791E-01 a        47     0     4     1     2
  1.4085043615293211E+00 a        48     0     4     1     3
 -3.6929490545570554E+00 a        49     0     4     1     4
 -8.9657501204374557E-01 a        50     0     4     1     5
 -2.3828520052018032E+00 a        51     0     4     1     6
 -7.9241009762048966E+00 a        52     0     4     1     7
  2.8305753550113093E+00 a        53     0     4     1     8
  4.0082772623466073E-01 a        54     0     4     1     9
  3.6712955015953410E+00 a        55     0     4     1    10
  4.4666634617411347E+00 a        56     0     4     1    11
 -1.0824052283848196E+00 a        57     0     4     1    12
 -1.3947833645247614E+00 a        58     0     4     1    13
  2.1288577345807957E+00 a        59     0     4     1    14
 -6.0951673496016279E-01 a        60     0     4     1    15
 -3.1344793426067213E-01 a        61     0     5     1     1
 -1.1017367898175763E+00 a        62     0     5     1     2
  8.4372332131653160E-01 a        63     0     5     1     3
 -1.4118327207497236E-01 a        64     0     5     1     4
  2.2862113942721090E+00 a        65     0     5     1     5
  2.8192016838518006E+00 a        66     0     5     1     6
 -1.0762280156005610E+00 a        67     0     5     1     7
  1.1949552375134418E+00 a        68     0     5     1     8
  3.7253654731194752E-01 a        69     0     5     1     9
  4.4360474899048347E-01 a        70     0     5     1    10
  8.0737259072989620E-03 a        71     0     5     1    11
  4.4942074004289765E+00 a        72     0     5     1    12
  1.6743590379211772E+00 a        73     0     5     1    13
  5.8574023276065035E-01 a        74     0     5     1    14
  9.5313994011553960E-01 a        75     0     5     1    15
 -7.4860228819948356E+00 a        76     0     6     1     1
  9.7241467999171138E-01 a        77     0     6     1     2
  1.9930958963898879E+00 a        78     0     6     1     3
 -3.2964020972014811E+00 a        79     0     6     1     4
  1.3933143159486414E+00 a        80     0     6     1     5
 -5.6126652467074161E+00 a        81     0     6     1     6
  1.3632870126975440E+00 a        82     0     6     1     7
  1.9920154391689535E+00 a        83     0     6     1     8
  2.1987697229293039E+00 a        84     0     6     1     9
 -1.1559123445907868E+00 a        85     0     6     1    10
  5.6641111049607877E+00 a        86     0     6     1    11
  8.8493429083369379E-01 a        87     0     6     1    12
 -2.5367273451562511E+00 a        88     0     6     1    13
  1.1338413612601095E+00 a        89     0     6     1    14
  7.1318322743229920E+00 a        90     0     6     1    15
  8.1482126833407631E-01 a        91     0     7     1     1
  2.6588898861076875E+00 a        92     0     7     1     2
 -4.2072906908326951E-01 a        93     0     7     1     3
 -2.2434975984848937E+00 a        94     0     7     1     4
 -4.3742272036841956E-01 a        95     0     7     1     5
 -2.3007183727402256E+00 a        96     0     7     1     6
  1.1835659139980574E+00 a        97     0     7     1     7
 -1.3623516465575760E+00 a        98     0     7     1     8
  2.4910968690059215E-01 a        99     0     7     1     9
 -6.7017250553408458E-01 a       100     0     7     1    10
  2.6035071008410391E+00 a       101     0     7     1    11
  1.7306443444677426E+00 a       102     0     7     1    12
 -1.5766755248681936E+00 a       103     0     7     1    13
 -3.2577482706673155E+00 a       104     0     7     1    14
  3.0606760707497362E+00 a       105     0     7     1    15
  4.1558333077857457E+00 a       106     0     8     1     1
  1.6331225111246410E+00 a       107     0     8     1     2
 -9.0476964349281250E-02 a       108     0     8     1     3
  7.3000789063258855E+00 a       109     0     8     1     4
  1.5286719140166751E+00 a       110     0     8     1     5
  6.1652480846887210E+00 a       111     0     8     1     6
  3.2769492229286992E+00 a       112     0     8     1     7
 -5.3593362500014257E+00 a       113     0     8     1     8
 -2.3795385278187267E+00 a       114     0     8     1     9
 -3.2909171992385300E+00 a       115     0     8     1    10
 -9.5908094033389766E+00 a       116     0     8     1    11
  3.5209169860469141E+00 a       117     0     8     1    12
 -1.6025889175778676E+00 a       118     0     8     1    13
 -4.5290861406929084E+00 a       119     0     8     1    14
  5.0073418737485662E+00 a       120     0     8     1    15
 -6.1524903930619303E-02 a       121     0     9     1     1
  2.4236199434249075E+00 a       122     0     9     1     2
 -2.2805423808851328E+00 a       123     0     9     1     3
  1.9999438819405215E+00 a       124     0     9     1     4
 -3.3747840619782195E+00 a       125     0     9     1     5
 -2.2913532651731375E-01 a       126     0     9     1     6
 -7.5750154942078196E-01 a       127     0     9     1     7
  1.6288979660575089E+00 a       128     0     9     1     8
 -3.3442886330923698E+00 a       129     0     9     1     9
  3.5706760223794571E+00 a       130     0     9     1    10
 -2.9460961980802081E+00 a       131     0     9     1    11
 -5.6850882297431102E+00 a       132     0     9     1    12
  4.5757260834593829E+00 a       133     0     9     1    13
  7.4164971890507725E-01 a       134     0     9     1    14
  2.5620816767797217E+00 a       135     0     9     1    15
  3.8920233306525405E+00 a       136     0    10     1     1
 -3.8130165526800219E-01 a       137     0    10     1     2
  1.8558752126925682E+00 a       138     0    10     1     3
 -6.0216612053900214E+00 a       139     0    10     1     4
 -4.1790227247174982E+00 a       140     0    10     1     5
 -3.5840364220990217E+00 a       141     0    10     1     6
 -2.3469905191309293E+00 a       142     0    10     1     7
  4.9697231746834278E+00 a       143     0    10     1     8
 -3.6308281204989750E+00 a       144     0    10     1     9
  2.8376175264039016E+00 a       145     0    10     1    10
  6.8682045718527860E+00 a       146     0    10     1    11
 -5.0106857205856397E+00 a       147     0    10     1    12
  9.0443614526687721E+00 a       148     0    10     1    13
  3.6249759362000558E+00 a       149     0    10     1    14
 -1.1254488004031098E+01 a       150     0    10     1    15
 -1.0315142046231356E-01 a       151     0    11     1     1
 -3.0345563271540592E+00 a       152     0    11     1     2
  3.5761924057589880E+00 a       153     0    11     1     3
 -1.2473634842986516E+00 a       154     0    11     1     4
  1.9922756080426893E+00 a       155     0    11     1     5
  1.9351064972241858E-01 a       156     0    11     1     6
  3.2700737603432795E-01 a       157     0    11     1     7
  1.2586844419753329E-01 a       158     0    11     1     8
  3.0658172630996132E+00 a       159     0    11     1     9
 -1.8385670036778305E+00 a       160     0    11     1    10
  2.1351737570380052E+00 a       161     0    11     1    11
  2.8535053369086922E+00 a       162     0    11     1    12
 -3.2458387324087394E+00 a       163     0    11     1    13
  1.0418927766222306E+00 a       164     0    11     1    14
 -3.3214626880708935E+00 a       165     0    11     1    15
 -6.6705022705028822E+00 a       166     0    12     1     1
 -2.4809683023001203E+00 a       167     0    12     1     2
 -2.6880799497866836E+00 a       168     0    12     1     3
  2.6596591727834169E+00 a       169     0    12     1     4
  1.9476513392365649E+00 a       170     0    12     1     5
  1.4336438041632256E+00 a       171     0    12     1     6
  5.3088761708232213E-01 a       172     0    12     1     7
 -2.3371592889758701E+00 a       173     0    12     1     8
  3.5277488909443333E+00 a       174     0    12     1     9
 -1.2390354067829537E+00 a       175     0    12     1    10
 -2.6876512224765290E+00 a       176     0    12     1    11
  1.1738068075838797E+00 a       177     0    12     1    12
 -7.3938483807259914E+00 a       178     0    12     1    13
 -2.0227335230641894E+00 a       179     0    12     1    14
  4.4581536341235433E+00 a       180     0    12     1    15
 -2.8031022799276833E-01 a       181     0    13     1     1
 -3.7978120955289357E-01 a       182     0    13     1     2
 -1.0697693529583188E+00 a       183     0    13     1     3
  3.4916643385618068E-01 a       184     0    13     1     4
 -3.4081520992244529E-01 a       185     0    13     1     5
  3.3923492591097598E-01 a       186     0    13     1     6
 -2.6676771419587075E-01 a       187     0    13     1     7
 -1.2754131451571371E+00 a       188     0    13     1     8
 -4.7194202950963515E-01 a       189     0    13     1     9
 -5.4126378467029579E-01 a       190     0    13     1    10
 -7.1837909173894265E-01 a       191     0    13     1    11
 -1.8552190767129476E-01 a       192     0    13     1    12
  1.4038269529142824E-01 a       193     0    13     1    13
 -3.3638281333166714E-01 a       194     0    13     1    14
  8.6414434972940357E-01 a       195     0    13     1    15
  2.7756474618585689E+00 a       196     0    14     1     1
  7.8878480025557318E-01 a       197     0    14     1     2
  9.4478334822795873E-01 a       198     0    14     1     3
 -4.1825360259858657E-01 a       199     0    14     1     4
 -5.5038465239432210E-01 a       200     0    14     1     5
  1.2563610674719596E-02 a       201     0    14     1     6
 -9.9232315524402676E-02 a       202     0    14     1     7
  6.7162626535146974E-01 a       203     0    14     1     8
  1.7291499487401554E-01 a       204     0    14     1     9
  1.1610890813377233E+00 a       205     0    14     1    10
  6.3253271938082101E-01 a       206     0    14     1    11
  3.4843062010716075E-01 a       207     0    14     1    12
  2.2236597242256591E+00 a       208     0    14     1    13
  5.2674082063763172E-01 a       209     0    14     1    14
 -3.5881461245756202E-01 a       210     0    14     1    15
 -1.0376489947024305E-01 a       211     0    15     1     1
  3.1553366807132455E-01 a       212     0    15     1     2
 -2.7824962960533973E-02 a       213     0    15     1     3
 -3.6594494563965137E-02 a       214     0    15     1     4
 -6.6281487754228825E-03 a       215     0    15     1     5
 -2.2253461447528844E-01 a       216     0    15     1     6
  2.1991941963241415E-02 a       217     0    15     1     7
  2.5208398672295346E-01 a       218     0    15     1     8
 -4.5272540498133396E-02 a       219     0    15     1     9
  1.2030227793030847E-01 a       220     0    15     1    10
  5.2420935767868770E-02 a       221     0    15     1    11
 -2.5663173905518606E-03 a       222     0    15     1    12
 -3.3735473784082955E-04 a       223     0    15     1    13
  1.2525391316291612E-01 a       224     0    15     1    14
 -5.3705627489186655E-02 a       225     0    15     1    15
 -1.2564607297953785E+00 a       226     0    16     1     1
 -1.6074309148676946E-01 a       227     0    16     1     2
  1.6286256074268904E-01 a       228     0    16     1     3
 -8.0197068776092076E-02 a       229     0    16     1     4
  9.0882208825177557E-02 a       230     0    16     1     5
  6.3123544353795538E-02 a       231     0    16     1     6
 -2.6231845541502857E-02 a       232     0    16     1     7
 -1.4039069909805427E-01 a       233     0    16     1     8
 -9.0695773957580050E-02 a       234     0    16     1     9
 -6.2050125361680630E-01 a       235     0    16     1    10
 -9.3067448408450493E-02 a       236     0    16     1    11
  1.4230636325848606E-01 a       237     0    16     1    12
 -2.0977580515993865E-02 a       238     0    16     1    13
  1.7503823760268669E-01 a       239     0    16     1    14
  3.1520449636019859E-01 a       240     0    16     1    15
  1.6115088659661567E+00 a       241     0    17     1     1
 -2.3703623594578800E+00 a       242     0    17     1     2
  7.4154268979118387E-01 a       243     0    17     1     3
  6.0782440488735356E-01 a       244     0    17     1     4
 -7.2823768659580457E-01 a       245     0    17     1     5
  1.8373345261911395E-01 a       246     0    17     1     6
  1.1276426820099261E-01 a       247     0    17     1     7
  1.9061386399922218E+00 a       248     0    17     1     8
 -1.7065431894964898E+00 a       249     0    17     1     9
 -1.3066220697806885E+00 a       250     0    17     1    10
 -2.2894744262003244E-01 a       251     0    17     1    11
  1.7841710788489542E+00 a       252     0    17     1    12
 -3.1002550378529006E+00 a       253     0    17     1    13
  8.2677417037960643E-01 a       254     0    17     1    14
 -7.0793345407002317E-01 a       255     0    17     1    15
  2.8354887936985498E+00 a       256     0    18     1     1
 -2.9043711622133217E+00 a       257     0    18     1     2
  2.4417881387239013E-01 a       258     0    18     1     3
  1.8498074297531704E+00 a       259     0    18     1     4
  1.0305806359774776E+00 a       260     0    18     1     5
 -1.6103355361612207E-01 a       261     0    18     1     6
  2.6245801618117560E-02 a       262     0    18     1     7
  8.2045076361183600E-01 a       263     0    18     1     8
  2.3021047996782578E+00 a       264     0    18     1     9
 -3.3879800106414768E+00 a       265     0    18     1    10
 -3.5776227186011039E-01 a       266     0    18     1    11
  1.3670745321676534E+00 a       267     0    18     1    12
 -1.6065591865951274E+00 a       268     0    18     1    13
 -1.9394835331753697E+00 a       269     0    18     1    14
  4.6421119724033805E-01 a       270     0    18     1    15
 -2.6341721515528609E+00 a       271     0    19     1     1
 -1.8285770750889683E+00 a       272     0    19     1     2
  1.3269857763090560E+00 a       273     0    19     1     3
  2.5641805455878468E+00 a       274     0    19     1     4
 -1.0301048423093084E+00 a       275     0    19     1     5
 -4.4666984988913777E-02 a       276     0    19     1     6
  2.8835902949144981E-01 a       277     0    19     1     7
  3.5746481899989657E+00 a       278     0    19     1     8
  4.0946068633652484E+00 a       279     0    19     1     9
  4.4199136851333787E+00 a       280     0    19     1    10
 -7.2359743468654647E-01 a       281     0    19     1    11
 -5.8183963420766627E-01 a       282     0    19     1    12
  5.6982185153326030E+00 a       283     0    19     1    13
 -3.3146721763509897E+00 a       284     0    19     1    14
 -7.8314603096565598E+00 a       285     0    19     1    15
  4.5591182832877108E-01 a       286     0    20     1     1
  1.4495584888161270E+00 a       287     0    20     1     2
 -7.3985767432052174E-01 a       288     0    20     1     3
 -2.0112240855637370E-01 a       289     0    20     1     4
  6.6492952329556243E-01 a       290     0    20     1     5
  3.6650855297174117E-01 a       291     0    20     1     6
  2.5671740046013549E-02 a       292     0    20     1     7
 -6.2083222630183543E-01 a       293     0    20     1     8
  5.0999203958422012E-01 a       294     0    20     1     9
  4.2743835250153167E-01 a       295     0    20     1    10
  5.7007792897124279E-02 a       296     0    20     1    11
 -7.5117099669398812E-01 a       297     0    20     1    12
  1.1361943693713559E+00 a       298     0    20     1    13
 -7.7050442626625171E-01 a       299     0    20     1    14
  4.1568801439756203E-01 a       300     0    20     1    15
 -2.5995584687789970E+00 a       301     0    21     1     1
  9.1511272720621720E-02 a       302     0    21     1     2
 -1.4773803155048488E+00 a       303     0    21     1     3
 -1.4596789456834034E+00 a       304     0    21     1     4
 -1.0207430436205605E+00 a       305     0    21     1     5
 -7.4078559120148091E-01 a       306     0    21     1     6
 -2.3264119952893972E-01 a       307     0    21     1     7
 -1.1023294477031595E+00 a       308     0    21     1     8
 -1.4101391580616507E+00 a       309     0    21     1     9
  1.1477054317187569E+00 a       310     0    21     1    10
  2.9685134541490234E-03 a       311     0    21     1    11
  5.9226027703424544E-01 a       312     0    21     1    12
  1.6687198408761983E+00 a       313     0    21     1    13
  1.7420264668668075E+00 a       314     0    21     1    14
  7.9498375107350605E-01 a       315     0    21     1    15
  4.9782980413403113E+00 a       316     0    22     1     1
 -7.9874975419360772E-01 a       317     0    22     1     2
  5.2510674555009518E-01 a       318     0    22     1     3
 -3.1260241138834819E+00 a       319     0    22     1     4
  2.9313428533765800E+00 a       320     0    22     1     5
 -1.6447379138598965E+00 a       321     0    22     1     6
  2.7402376685322138E-01 a       322     0    22     1     7
 -6.5534752445617288E+00 a       323     0    22     1     8
 -1.6151914227310558E+00 a       324     0    22     1     9
 -5.9920376859170661E+00 a       325     0    22     1    10
  1.0119261388933118E+00 a       326     0    22     1    11
 -6.7432918211136883E-01 a       327     0    22     1    12
 -6.9541301878262036E+00 a       328     0    22     1    13
  4.7944280936383050E+00 a       329     0    22     1    14
  7.8576188802091913E+00 a       330     0    22     1    15
  2.2970098719082230E-01 a       331     0    23     1     1
 -7.5037879400601848E-01 a       332     0    23     1     2
  6.0299529186731027E-01 a       333     0    23     1     3
 -6.8924365819734079E-01 a       334     0    23     1     4
 -5.1357527027769988E-02 a       335     0    23     1     5
  5.9002020993878013E-01 a       336     0    23     1     6
  6.3408595894910644E-03 a       337     0    23     1     7
 -4.8891004317888126E-01 a       338     0    23     1     8
  2.7489919713272295E+00 a       339     0    23     1     9
  3.4419141462291519E-01 a       340     0    23     1    10
 -5.1219730035403565E-03 a       341     0    23     1    11
  4.0764903194284385E-01 a       342     0    23     1    12
  2.5284293716526102E-01 a       343     0    23     1    13
  4.5182994760797562E-01 a       344     0    23     1    14
  4.1363117675535732E-01 a       345     0    23     1    15
  1.0492700957214154E+00 a       346     0    24     1     1
 -2.3480529021331489E-01 a       347     0    24     1     2
  7.1141343306793658E-01 a       348     0    24     1     3
  6.0166783573881422E-01 a       349     0    24     1     4
  2.1699181153623218E-01 a       350     0    24     1     5
  8.9791358845004932E-01 a       351     0    24     1     6
  8.5690320736117598E-03 a       352     0    24     1     7
  1.5163118005525869E-01 a       353     0    24     1     8
  5.4136234933257510E-01 a       354     0    24     1     9
  1.2377392587173783E+00 a       355     0    24     1    10
 -3.7845403795617259E-02 a       356     0    24     1    11
 -2.3860540874985550E-01 a       357     0    24     1    12
  5.2955701069853223E-01 a       358     0    24     1    13
 -9.2621471219277640E-01 a       359     0    24     1    14
  1.4324122202867876E-01 a       360     0    24     1    15
  9.8034846268955889E-01 a       361     0    25     1     1
  2.6826804875366972E+00 a       362     0    25     1     2
  2.7910727393745755E-01 a       363     0    25     1     3
 -4.8105152569600691E-02 a       364     0    25     1     4
  4.7870983995324878E-01 a       365     0    25     1     5
 -1.3224764906597597E+00 a       366     0    25     1     6
  1.2455168948197709E-01 a       367     0    25     1     7
 -2.1655541197705190E+00 a       368     0    25     1     8
 -7.0560415626306128E-01 a       369     0    25     1     9
  2.0918983690702984E+00 a       370     0    25     1    10
 -1.5851060094609848E-02 a       371     0    25     1    11
  5.6361522236196426E-01 a       372     0    25     1    12
 -1.8698122028459017E+00 a       373     0    25     1    13
 -4.0859385540038284E-01 a       374     0    25     1    14
 -3.2056435437463047E+00 a       375     0    25     1    15
  1.3612763297952582E-01 a       376     0    26     1     1
 -5.4972299536969438E-01 a       377     0    26     1     2
  5.0591980002849546E-01 a       378     0    26     1     3
 -9.2880087934422595E-02 a       379     0    26     1     4
 -1.7786478789136537E-01 a       380     0    26     1     5
  1.3038658003461517E-01 a       381     0    26     1     6
  3.5814241913542270E-04 a       382     0    26     1     7
  3.9226998400629010E-01 a       383     0    26     1     8
 -3.2392807279002334E-01 a       384     0    26     1     9
 -1.9390586539856311E-01 a       385     0    26     1    10
 -2.1914996703287404E-03 a       386     0    26     1    11
  3.6909677531755003E-01 a       387     0    26     1    12
 -4.9107846340738487E-01 a       388     0    26     1    13
  1.7091842343015951E-01 a       389     0    26     1    14
 -2.4435506657498834E-01 a       390     0    26     1    15
  1.1069925556699669E+00 a       391     0    27     1     1
  3.9704368855868866E-01 a       392     0    27     1     2
  2.9118240273879574E+00 a       393     0    27     1     3
 -8.3404440817984302E-02 a       394     0    27     1     4
  5.4681815465700800E-01 a       395     0    27     1     5
  8.5599815726710360E-01 a       396     0    27     1     6
  2.4764030695199831E-02 a       397     0    27     1     7
  6.3497856689631260E-01 a       398     0    27     1     8
  1.8072126183729424E+00 a       399     0    27     1     9
 -8.7704653561286605E-01 a       400     0    27     1    10
 -1.0191014704488173E-01 a       401     0    27     1    11
  5.3891327307109094E-01 a       402     0    27     1    12
 -7.3677288293094623E-01 a       403     0    27     1    13
 -9.0102783132525599E-01 a       404     0    27     1    14
  3.1851727719323425E-01 a       405     0    27     1    15
 -2.0547776844359871E+00 a       406     0    28     1     1
  7.5749303918565480E-01 a       407     0    28     1     2
  2.7368568405590112E+00 a       408     0    28     1     3
  1.6824025369190732E+00 a       409     0    28     1     4
 -1.4093875067494985E+00 a       410     0    28     1     5
  5.0412978855541879E-01 a       411     0    28     1     6
 -1.4785018630610360E-02 a       412     0    28     1     7
  2.4951402375557827E+00 a       413     0    28     1     8
  4.3922224837480017E-01 a       414     0    28     1     9
  1.5661698036418112E+00 a       415     0    28     1    10
 -5.9216680492293006E-01 a       416     0    28     1    11
  1.6630667794133069E-01 a       417     0    28     1    12
  1.7554246297137472E+00 a       418     0    28     1    13
 -9.3917201489287971E-01 a       419     0    28     1    14
 -1.6104709462049689E+00 a       420     0    28     1    15
 -1.2818668064236693E+00 a       421     0    29     1     1
 -3.3817057966042507E+00 a       422     0    29     1     2
  9.3794108459614625E-02 a       423     0    29     1     3
  1.6095929285081845E-01 a       424     0    29     1     4
 -1.1207384205137620E-01 a       425     0    29     1     5
 -1.7524028753810839E+00 a       426     0    29     1     6
  1.7672377757144958E-05 a       427     0    29     1     7
 -2.8540705505275155E-02 a       428     0    29     1     8
 -3.1116555071860619E-01 a       429     0    29     1     9
 -1.3842071223233365E+00 a       430     0    29     1    10
  6.1129650470993363E-02 a       431     0    29     1    11
  8.5383249445318621E-01 a       432     0    29     1    12
 -1.4208213980380267E+00 a       433     0    29     1    13
  1.2590131443761887E+00 a       434     0    29     1    14
 -8.2116015869505088E-01 a       435     0    29     1    15
  2.4295046741939075E+00 a       436     0    30     1     1
 -8.4486708355092566E-01 a       437     0    30     1     2
 -2.3483895298729616E+00 a       438     0    30     1     3
  1.9705190848260283E+00 a       439     0    30     1     4
 -6.5272006590667120E-01 a       440     0    30     1     5
  3.0593291969761607E+00 a       441     0    30     1     6
  2.8193511136607813E-01 a       442     0    30     1     7
  1.2101307606726746E+00 a       443     0    30     1     8
  6.3698666818627003E-01 a       444     0    30     1     9
 -7.5564081461312230E-02 a       445     0    30     1    10
 -2.5361298746012151E-01 a       446     0    30     1    11
 -1.7051291477928052E+00 a       447     0    30     1    12
 -4.2492303129153969E-01 a       448     0    30     1    13
  1.3968354707368058E+00 a       449     0    30     1    14
  1.3725353548334704E+00 a       450     0    30     1    15
  1.0703449692037128E+00 a       451     0    31     1     1
  1.2283421071297351E+00 a       452     0    31     1     2
  1.7500554780042796E+00 a       453     0    31     1     3
  1.0220010750806978E+00 a       454     0    31     1     4
  7.4057979382723280E+00 a       455     0    31     1     5
  1.6928606823483763E+00 a       456     0    31     1     6
  2.7374933683481935E+00 a       457     0    31     1     7
  5.8506564804855063E+00 a       458     0    31     1     8
  1.6844046606767771E+00 a       459     0    31     1     9
 -6.0085629143375350E+00 a       460     0    31     1    10
 -3.2605008591245537E+00 a       461     0    31     1    11
  1.6770091055217953E+00 a       462     0    31     1    12
 -5.5948026558088166E+00 a       463     0    31     1    13
  8.4937006629121059E-01 a       464     0    31     1    14
 -9.1337456128257732E-01 a       465     0    31     1    15
  5.5714474578937034E-01 a       466     0    32     1     1
  2.4632711555843434E+00 a       467     0    32     1     2
  2.1148756628497309E-01 a       468     0    32     1     3
 -4.2107140242577290E-01 a       469     0    32     1     4
  4.8517858508340500E-01 a       470     0    32     1     5
  1.6383697918048747E+00 a       471     0    32     1     6
  1.7353993127255194E-02 a       472     0    32     1     7
 -2.1676233583640772E-01 a       473     0    32     1     8
  1.6374479931420158E+00 a       474     0    32     1     9
  1.2373437809908290E+00 a       475     0    32     1    10
 -4.0988280528613828E-02 a       476     0    32     1    11
 -1.5011220542702544E+00 a       477     0    32     1    12
  1.3352331470347651E+00 a       478     0    32     1    13
 -1.0796083861139851E+00 a       479     0    32     1    14
 -4.8904788423367934E-01 a       480     0    32     1    15
 -1.8074204191479224E+00 a       481     0    33     1     1
  1.8691674801363081E-01 a       482     0    33     1     2
 -1.8948922107184947E+00 a       483     0    33     1     3
 -2.2328984856552689E+00 a       484     0    33     1     4
  1.4999743282255865E-01 a       485     0    33     1     5
 -1.9757613551271831E+00 a       486     0    33     1     6
 -1.9085140328224032E-01 a       487     0    33     1     7
 -9.5172428751875526E-01 a       488     0    33     1     8
  2.4713069579996860E+00 a       489     0    33     1     9
  6.5874049234681464E-01 a       490     0    33     1    10
  1.2745208900120397E-01 a       491     0    33     1    11
 -8.3650444298553228E-01 a       492     0    33     1    12
  2.5292817942526322E+00 a       493     0    33     1    13
 -2.5420079163756988E+00 a       494     0    33     1    14
 -9.0465267252719095E-01 a       495     0    33     1    15
 -1.3292136105393149E+00 a       496     0    34     1     1
  7.6857894669658133E+00 a       497     0    34     1     2
 -9.9749312022262302E+00 a       498     0    34     1     3
  3.5870590541540670E+00 a       499     0    34     1     4
 -3.8291678649955929E+00 a       500     0    34     1     5
 -9.2757856156831200E-02 a       501     0    34     1     6
 -2.2375088355507744E+00 a       502     0    34     1     7
 -6.9324387261271694E+00 a       503     0    34     1     8
 -8.2915263096365219E+00 a       504     0    34     1     9
  3.5446376321828517E+00 a       505     0    34     1    10
  2.5522371859575741E+00 a       506     0    34     1    11
 -4.5839627480927172E+00 a       507     0    34     1    12
  1.8725020096446248E+00 a       508     0    34     1    13
 -3.5896374778575573E+00 a       509     0    34     1    14
  2.9747340221863205E+00 a       510     0    34     1    15
  2.6071846467272619E-01 a       511     0    35     1     1
  1.2438335220010015E+00 a       512     0    35     1     2
  7.9204392647761845E-01 a       513     0    35     1     3
 -5.9814030817254471E-01 a       514     0    35     1     4
 -2.1143203382460493E-01 a       515     0    35     1     5
  9.9955734365731053E-01 a       516     0    35     1     6
 -4.6250924129056716E-02 a       517     0    35     1     7
  2.7818214398819496E-01 a       518     0    35     1     8
 -3.5594800637247792E-02 a       519     0    35     1     9
  9.1525421038308719E-01 a       520     0    35     1    10
 -8.5577557170176798E-03 a       521     0    35     1    11
 -6.6220742996928983E-02 a       522     0    35     1    12
  1.1771285050139819E+00 a       523     0    35     1    13
 -8.2086586689851071E-01 a       524     0    35     1    14
  8.2043298954388844E-01 a       525     0    35     1    15
 -3.7963935232034046E-01 a       526     0    36     1     1
  4.4274140271737589E-01 a       527     0    36     1     2
  3.9751786198545456E+00 a       528     0    36     1     3
 -1.2664644019551354E+00 a       529     0    36     1     4
 -3.5278978835032976E-01 a       530     0    36     1     5
 -1.1540390146132449E+00 a       531     0    36     1     6
 -1.2949234219941663E-01 a       532     0    36     1     7
  6.7514958638603606E-01 a       533     0    36     1     8
 -1.7115532140298413E+00 a       534     0    36     1     9
  1.0538020522441092E+00 a       535     0    36     1    10
 -5.8201109768687982E-02 a       536     0    36     1    11
  3.0112882398906620E+00 a       537     0    36     1    12
  1.6102437363469955E+00 a       538     0    36     1    13
 -1.3260251682073576E+00 a       539     0    36     1    14
  1.6405992775248588E+00 a       540     0    36     1    15
 -2.8971240085602892E+00 a       541     0    37     1     1
  1.8386354229964248E+00 a       542     0    37     1     2
  5.5432701862201297E+00 a       543     0    37     1     3
 -1.9948613767185051E+00 a       544     0    37     1     4
 -3.8290468413710066E+00 a       545     0    37     1     5
 -1.2295443191696938E+00 a       546     0    37     1     6
 -1.0878793418215531E+00 a       547     0    37     1     7
 -1.7896767838545441E-01 a       548     0    37     1     8
 -5.1256787139536728E+00 a       549     0    37     1     9
  2.9276770077340530E+00 a       550     0    37     1    10
  1.5015806977059083E+00 a       551     0    37     1    11
  4.2739223798872965E+00 a       552     0    37     1    12
  3.5153836269417407E+00 a       553     0    37     1    13
  2.5001705853112416E-01 a       554     0    37     1    14
 -3.7701941150427007E+00 a       555     0    37     1    15
 -2.7939162935429079E-01 a       556     0    38     1     1
 -2.2910189534210451E-01 a       557     0    38     1     2
  4.2416903815566696E-02 a       558     0    38     1     3
  2.3712858922980445E-01 a       559     0    38     1     4
 -3.8700416429123413E-01 a       560     0    38     1     5
 -4.4807683910313650E-01 a       561     0    38     1     6
 -3.0075652379932444E-02 a       562     0    38     1     7
 -1.5540063412901922E-01 a       563     0    38     1     8
 -1.1992251660466662E+00 a       564     0    38     1     9
 -6.9705470058941155E-01 a       565     0    38     1    10
 -4.1628681277919612E-03 a       566     0    38     1    11
  1.4202915829387611E-01 a       567     0    38     1    12
 -9.5099457187656300E-01 a       568     0    38     1    13
  4.7266195684373069E-01 a       569     0    38     1    14
  1.0604208481263148E-01 a       570     0    38     1    15
  7.4955822342277656E-01 a       571     0    39     1     1
 -1.6144596190871097E+00 a       572     0    39     1     2
  8.4105252770290317E-01 a       573     0    39     1     3
  9.9736507517402540E-01 a       574     0    39     1     4
 -3.4184194679553687E-01 a       575     0    39     1     5
  1.1045690299363913E+00 a       576     0    39     1     6
  1.3708136782091135E-01 a       577     0    39     1     7
  2.9588104660476494E-01 a       578     0    39     1     8
 -1.7106784846517049E+00 a       579     0    39     1     9
 -8.8239474560295128E-01 a       580     0    39     1    10
 -1.9146296668446340E-02 a       581     0    39     1    11
 -3.7087330222896864E-01 a       582     0    39     1    12
 -2.2455124133847675E+00 a       583     0    39     1    13
  8.6250106648327451E-01 a       584     0    39     1    14
  5.4571751328671314E-01 a       585     0    39     1    15
  1.6466098960818361E+00 a       586     0    40     1     1
 -8.7267673590578720E+00 a       587     0    40     1     2
  4.7949992617281980E+00 a       588     0    40     1     3
 -4.6583463422814235E+00 a       589     0    40     1     4
 -1.3262293542326857E+00 a       590     0    40     1     5
 -1.3443397916819837E+00 a       591     0    40     1     6
  4.6948392727447952E-01 a       592     0    40     1     7
  1.0882793039989891E+00 a       593     0    40     1     8
  7.5288302123544391E+00 a       594     0    40     1     9
 -2.0838415868720266E+00 a       595     0    40     1    10
 -7.7406899341050417E-01 a       596     0    40     1    11
  1.4172963488328635E-01 a       597     0    40     1    12
  1.8277622053937135E+00 a       598     0    40     1    13
  2.1274021919003698E+00 a       599     0    40     1    14
 -1.1233063475677532E+00 a       600     0    40     1    15
  7.5031821543328303E-01 a       601     0    41     1     1
 -1.5800205323583154E+00 a       602     0    41     1     2
  2.3199380430062616E-02 a       603     0    41     1     3
  6.7354056782797558E-02 a       604     0    41     1     4
 -1.1680653991096282E-01 a       605     0    41     1     5
  1.1648836346169371E+00 a       606     0    41     1     6
 -3.8043538825499704E-04 a       607     0    41     1     7
 -5.8694792915851102E-01 a       608     0    41     1     8
  3.3090124136560783E+00 a       609     0    41     1     9
  9.1661080083277857E-01 a       610     0    41     1    10
 -9.5352343071124029E-02 a       611     0    41     1    11
  6.8560651959994201E-01 a       612     0    41     1    12
 -2.6244959074600444E-01 a       613     0    41     1    13
 -2.9236210334001733E-01 a       614     0    41     1    14
  1.4911230818534402E+00 a       615     0    41     1    15
 -3.3111116459634320E+00 a       616     0    42     1     1
 -2.9407509252330621E+00 a       617     0    42     1     2
  1.5083167228504650E+00 a       618     0    42     1     3
  1.9148884474611081E+00 a       619     0    42     1     4
  1.0065209573691256E+00 a       620     0    42     1     5
 -2.6729543396107971E+00 a       621     0    42     1     6
 -9.2809591928859778E-02 a       622     0    42     1     7
 -4.7367227401571519E+00 a       623     0    42     1     8
  5.4887537587074249E+00 a       624     0    42     1     9
 -1.3712823802852379E+00 a       625     0    42     1    10
 -2.6463502849347537E-01 a       626     0    42     1    11
  1.0140716331751713E+00 a       627     0    42     1    12
 -2.9068418004853163E+00 a       628     0    42     1    13
  5.8882149710584475E-01 a       629     0    42     1    14
 -2.5641013186400889E+00 a       630     0    42     1    15
  9.3862748508624985E-02 a       631     0    43     1     1
 -5.1771800796049368E+00 a       632     0    43     1     2
  3.6737211164716277E-01 a       633     0    43     1     3
  3.8981213520644014E+00 a       634     0    43     1     4
 -7.2074008627946942E+00 a       635     0    43     1     5
 -2.3655022765571615E-01 a       636     0    43     1     6
 -1.5927047121924549E+00 a       637     0    43     1     7
 -9.0586099002095786E+00 a       638     0    43     1     8
  9.7052772997582686E+00 a       639     0    43     1     9
  3.2048552369521661E+00 a       640     0    43     1    10
  1.4752986221683173E+00 a       641     0    43     1    11
 -6.8604546621211515E-01 a       642     0    43     1    12
  3.8249605975538041E+00 a       643     0    43     1    13
  4.3052080565385920E+00 a       644     0    43     1    14
 -5.0745987829031858E+00 a       645     0    43     1    15
  4.9333842432456432E-01 a       646     0    44     1     1
  1.4442184823668835E+00 a       647     0    44     1     2
 -5.2131840352464742E-01 a       648     0    44     1     3
 -1.6235462060710784E-01 a       649     0    44     1     4
 -2.0275415718688017E-01 a       650     0    44     1     5
 -2.7447046864237057E-01 a       651     0    44     1     6
  1.3540476470440579E-01 a       652     0    44     1     7
  4.9772637864866903E-01 a       653     0    44     1     8
 -2.5936293865960036E+00 a       654     0    44     1     9
 -1.0749752431887392E+00 a       655     0    44     1    10
 -1.9067183426009426E-01 a       656     0    44     1    11
  5.6831019328130394E-01 a       657     0    44     1    12
 -7.2326117596448330E-02 a       658     0    44     1    13
  2.3516276705273478E-01 a       659     0    44     1    14
 -9.3213362537051425E-01 a       660     0    44     1    15
  3.3687447815649603E+00 a       661     0    45     1     1
 -6.1441070061443570E-01 a       662     0    45     1     2
  2.9738750560487173E+00 a       663     0    45     1     3
 -9.8887095863755259E-01 a       664     0    45     1     4
 -1.3266670807325287E-01 a       665     0    45     1     5
  3.9630953375533648E+00 a       666     0    45     1     6
 -5.4808755848243317E-02 a       667     0    45     1     7
  3.0509474683114512E+00 a       668     0    45     1     8
 -1.3875405103681309E+00 a       669     0    45     1     9
 -4.6564483239654003E-01 a       670     0    45     1    10
  2.1290206862400066E-01 a       671     0    45     1    11
  9.7292527669779028E-01 a       672     0    45     1    12
 -8.6887461164345126E-01 a       673     0    45     1    13
  4.6715219004115061E-01 a       674     0    45     1    14
  2.3647259249568264E-01 a       675     0    45     1    15
  3.1099789198727876E+00 a       676     0    46     1     1
 -2.6615769158052660E+00 a       677     0    46     1     2
  6.2861320923431956E+00 a       678     0    46     1     3
 -7.0092687168092622E+00 a       679     0    46     1     4
  3.5403244551509454E+00 a       680     0    46     1     5
 -4.2940062934583156E-01 a       681     0    46     1     6
  1.5051957404783249E+00 a       682     0    46     1     7
  5.5460431507068551E+00 a       683     0    46     1     8
  6.9120963443601066E-02 a       684     0    46     1     9
 -7.9840848901385797E-01 a       685     0    46     1    10
 -2.3070604755934978E+00 a       686     0    46     1    11
  3.4995019471233002E+00 a       687     0    46     1    12
  5.1977702626119240E-02 a       688     0    46     1    13
 -3.0942854606430221E+00 a       689     0    46     1    14
  6.2604346896189691E+00 a       690     0    46     1    15
 -7.4000597889005856E-02 a       691     0    47     1     1
 -9.4503942832360452E-02 a       692     0    47     1     2
 -8.1340623113175559E-01 a       693     0    47     1     3
  7.3302651045823874E-01 a       694     0    47     1     4
  2.9611874192641602E-01 a       695     0    47     1     5
 -7.4093252862644532E-01 a       696     0    47     1     6
  9.5069796296937945E-02 a       697     0    47     1     7
 -6.0562010128984010E-02 a       698     0    47     1     8
 -1.9053329003430561E+00 a       699     0    47     1     9
 -9.0689685103805107E-01 a       700     0    47     1    10
 -4.8917943329444991E-02 a       701     0    47     1    11
 -1.9665381684758587E-01 a       702     0    47     1    12
 -8.9575687831621187E-01 a       703     0    47     1    13
  4.6808926685442753E-01 a       704     0    47     1    14
 -1.1023451837952003E+00 a       705     0    47     1    15
  2.7234987174029140E-01 a       706     0    48     1     1
  3.8125922750988223E-02 a       707     0    48     1     2
 -2.5231664066434734E+00 a       708     0    48     1     3
 -6.8735947173477185E-01 a       709     0    48     1     4
  4.3100715948766144E-01 a       710     0    48     1     5
  9.7324655236448010E-01 a       711     0    48     1     6
  2.0104857153271349E-01 a       712     0    48     1     7
  1.3627510316182367E+00 a       713     0    48     1     8
 -1.2826392880325110E+00 a       714     0    48     1     9
 -6.8170371666388840E-01 a       715     0    48     1    10
  1.2938403275111873E-01 a       716     0    48     1    11
 -1.7464959681275731E+00 a       717     0    48     1    12
 -2.9529464538610761E-01 a       718     0    48     1    13
  6.7242106237428401E-01 a       719     0    48     1    14
 -1.0579763138168570E+00 a       720     0    48     1    15
  2.5046136841392390E+00 a       721     0    49     1     1
  3.5298716722596146E+00 a       722     0    49     1     2
 -3.7151149047429906E+00 a       723     0    49     1     3
 -1.2551615061435979E+00 a       724     0    49     1     4
  3.8992995909367791E+00 a       725     0    49     1     5
 -2.9934754383734807E-01 a       726     0    49     1     6
  3.3529644229214939E-01 a       727     0    49     1     7
  3.3464522906830494E+00 a       728     0    49     1     8
 -8.8771586992500662E-01 a       729     0    49     1     9
 -3.3831238497298294E-01 a       730     0    49     1    10
 -1.4565699100793292E-01 a       731     0    49     1    11
 -2.9269257039524472E+00 a       732     0    49     1    12
 -7.2596883367936293E-01 a       733     0    49     1    13
 -1.7935171388462134E+00 a       734     0    49     1    14
  6.6654847479732142E+00 a       735     0    49     1    15
 -3.0564192858573885E-01 a       736     0    50     1     1
 -1.1108949994299875E+00 a       737     0    50     1     2
 -4.7576087986256010E-01 a       738     0    50     1     3
  2.4156163746794299E-01 a       739     0    50     1     4
  1.3661471718479778E-01 a       740     0    50     1     5
 -3.4066262740772446E-01 a       741     0    50     1     6
 -4.9314541766900172E-02 a       742     0    50     1     7
  1.0052619383498358E-01 a       743     0    50     1     8
  1.0875487452635533E+00 a       744     0    50     1     9
  6.0390177063145600E-01 a       745     0    50     1    10
  1.0764592637161366E-01 a       746     0    50     1    11
 -2.1821552424633830E-01 a       747     0    50     1    12
  4.9296175914289642E-01 a       748     0    50     1    13
 -1.2282438622585995E-01 a       749     0    50     1    14
  6.6462692205518881E-01 a       750     0    50     1    15
 -1.4164327699112895E+00 a       751     0    51     1     1
  1.9875771404656459E+00 a       752     0    51     1     2
 -3.3672927717747516E+00 a       753     0    51     1     3
  1.0936880897509391E+00 a       754     0    51     1     4
 -5.4283659527267825E-01 a       755     0    51     1     5
 -2.4399953697518120E+00 a       756     0    51     1     6
 -1.8662832528971815E-01 a       757     0    51     1     7
 -1.8310292862801827E+00 a       758     0    51     1     8
 -1.4973011201681974E+00 a       759     0    51     1     9
  8.2292515003012309E-02 a       760     0    51     1    10
 -6.9745637941005689E-02 a       761     0    51     1    11
 -2.0595989459886956E+00 a       762     0    51     1    12
  1.0068042591703077E-01 a       763     0    51     1    13
  6.8599081631895742E-01 a       764     0    51     1    14
 -2.3280479347646845E+00 a       765     0    51     1    15
 -3.0132924136856030E+00 a       766     0    52     1     1
  3.1805141514417454E+00 a       767     0    52     1     2
 -7.2658469653177828E+00 a       768     0    52     1     3
  4.2034115951580500E+00 a       769     0    52     1     4
  1.1001864507006720E+00 a       770     0    52     1     5
  2.2094698333054925E+00 a       771     0    52     1     6
 -6.3988122038664674E-01 a       772     0    52     1     7
 -3.2148267634412109E-01 a       773     0    52     1     8
 -2.5037694922233915E+00 a       774     0    52     1     9
  2.0381571834502079E+00 a       775     0    52     1    10
  9.9984323164931055E-01 a       776     0    52     1    11
 -6.2614215367677428E-01 a       777     0    52     1    12
 -2.8760262513885717E+00 a       778     0    52     1    13
 -1.5823572909925843E-01 a       779     0    52     1    14
 -4.9689987179518313E+00 a       780     0    52     1    15
  1.0497225303539168E+00 a       781     0    53     1     1
  2.1607992612232709E+00 a       782     0    53     1     2
 -1.7579037192906593E+00 a       783     0    53     1     3
  1.7662475863806986E+00 a       784     0    53     1     4
 -5.4918401140421236E-01 a       785     0    53     1     5
 -5.9150085306441469E-01 a       786     0    53     1     6
  1.9754992571837107E-01 a       787     0    53     1     7
  1.7510878445782148E+00 a       788     0    53     1     8
 -3.3616831866202790E+00 a       789     0    53     1     9
 -1.5574994924644561E+00 a       790     0    53     1    10
 -2.5642768301993829E-01 a       791     0    53     1    11
 -3.7333662386013272E-01 a       792     0    53     1    12
 -1.4322528543556270E+00 a       793     0    53     1    13
  1.3349656214367359E-01 a       794     0    53     1    14
 -1.0054025634392869E+00 a       795     0    53     1    15
  2.6795151614964139E+00 a       796     0    54     1     1
  6.0140783987300455E-03 a       797     0    54     1     2
 -5.7914333055358203E-02 a       798     0    54     1     3
 -1.9945568862179705E-01 a       799     0    54     1     4
 -1.7170372763536472E+00 a       800     0    54     1     5
 -1.5925469035345234E+00 a       801     0    54     1     6
 -6.3753821838558281E-02 a       802     0    54     1     7
  2.2220762126467308E+00 a       803     0    54     1     8
 -3.7568111838847504E+00 a       804     0    54     1     9
 -3.3398460720687915E+00 a       805     0    54     1    10
  1.4474635671802660E-01 a       806     0    54     1    11
  1.2691349052605996E+00 a       807     0    54     1    12
 -6.5343637437374402E-01 a       808     0    54     1    13
  1.9435287238595360E+00 a       809     0    54     1    14
  1.6465832041910795E+00 a       810     0    54     1    15
  3.6129352215792343E-01 a       811     0    55     1     1
 -8.4365602055694691E+00 a       812     0    55     1     2
  1.7903872943622784E-01 a       813     0    55     1     3
 -2.8943468563605634E+00 a       814     0    55     1     4
  1.7705725127719776E-01 a       815     0    55     1     5
 -5.7380708115093804E-01 a       816     0    55     1     6
  3.9993290462175507E-01 a       817     0    55     1     7
  7.7419363804128700E+00 a       818     0    55     1     8
 -3.4761705410915305E+00 a       819     0    55     1     9
 -3.7102762266513873E+00 a       820     0    55     1    10
 -1.5258358420850840E-02 a       821     0    55     1    11
 -5.9455569304914579E-01 a       822     0    55     1    12
  4.6651380793964588E-02 a       823     0    55     1    13
 -7.8571684178285772E-01 a       824     0    55     1    14
 -1.9894079121454911E+00 a       825     0    55     1    15
 -2.7024570298208355E+00 a       826     0    56     1     1
  2.2172037865349310E+00 a       827     0    56     1     2
  1.3380106681490200E+00 a       828     0    56     1     3
 -1.0475648135301010E+00 a       829     0    56     1     4
  8.2446890049608779E-01 a       830     0    56     1     5
 -4.1369733472824050E-01 a       831     0    56     1     6
 -2.3179530299521223E-01 a       832     0    56     1     7
 -1.7188643996477204E+00 a       833     0    56     1     8
  7.2334145585937093E-01 a       834     0    56     1     9
  2.3268365684495880E+00 a       835     0    56     1    10
  4.0163599686749168E-01 a       836     0    56     1    11
 -1.6957549315807496E+00 a       837     0    56     1    12
  3.4977548419622537E+00 a       838     0    56     1    13
 -8.7894898088815332E-01 a       839     0    56     1    14
  1.1281343066800105E+00 a       840     0    56     1    15
 -5.4590893911700666E+00 a       841     0    57     1     1
  2.0699961319378870E+00 a       842     0    57     1     2
  1.4882547571520814E+00 a       843     0    57     1     3
 -1.8063721936242139E+00 a       844     0    57     1     4
  2.4533849027439614E-01 a       845     0    57     1     5
  1.0317175534441771E+00 a       846     0    57     1     6
  1.3691422119608121E-01 a       847     0    57     1     7
 -1.2245251196033560E+00 a       848     0    57     1     8
 -1.5191393748029829E+00 a       849     0    57     1     9
  4.2042632902364581E+00 a       850     0    57     1    10
  3.5192130622136558E-01 a       851     0    57     1    11
 -2.6476151460123782E+00 a       852     0    57     1    12
  2.8277501853292248E+00 a       853     0    57     1    13
  4.3650018508259408E-01 a       854     0    57     1    14
 -8.4380309238251583E-01 a       855     0    57     1    15
 -1.7063476219387697E+00 a       856     0    58     1     1
  4.1145224308827979E+00 a       857     0    58     1     2
 -9.7048121847703184E-01 a       858     0    58     1     3
  2.4399297113836473E+00 a       859     0    58     1     4
  6.3616183027283257E-01 a       860     0    58     1     5
  2.5448164826130362E+00 a       861     0    58     1     6
 -4.3187512342849127E-01 a       862     0    58     1     7
 -3.9712672757566101E+00 a       863     0    58     1     8
 -4.1912979409685414E-01 a       864     0    58     1     9
 -4.0382291220041938E-01 a       865     0    58     1    10
  5.2355502688674571E-01 a       866     0    58     1    11
 -3.5293421141483872E-01 a       867     0    58     1    12
 -2.9042468509740851E+00 a       868     0    58     1    13
  3.4144122703016824E+00 a       869     0    58     1    14
  5.9819540003524816E+00 a       870     0    58     1    15
 -3.5130078721656322E-01 a       871     0    59     1     1
 -5.3819028677668523E-01 a       872     0    59     1     2
  1.3386884948732829E+00 a       873     0    59     1     3
 -1.2377819926656917E+00 a       874     0    59     1     4
  1.1863617671734767E-02 a       875     0    59     1     5
  4.5059665841503355E-01 a       876     0    59     1     6
 -1.1307648838817620E-01 a       877     0    59     1     7
 -3.2077829167029953E-01 a       878     0    59     1     8
  2.7987827975291539E+00 a       879     0    59     1     9
  1.0681697744127781E+00 a       880     0    59     1    10
  1.7251267398016520E-01 a       881     0    59     1    11
  2.2077458629730254E-01 a       882     0    59     1    12
  1.1747147552290955E+00 a       883     0    59     1    13
  1.4318293863411066E-01 a       884     0    59     1    14
  7.9029826392613367E-01 a       885     0    59     1    15
  1.2416361777168615E-01 a       886     0    60     1     1
  4.4171319652866059E-01 a       887     0    60     1     2
  4.1245256672386904E-01 a       888     0    60     1     3
  3.0061725330493783E-01 a       889     0    60     1     4
  5.6559856302493883E-01 a       890     0    60     1     5
  7.5827515846452076E-01 a       891     0    60     1     6
 -1.9006535306959376E-02 a       892     0    60     1     7
 -3.6411472047605109E-01 a       893     0    60     1     8
  1.0034933846068792E+00 a       894     0    60     1     9
  2.2634134843089857E+00 a       895     0    60     1    10
 -7.1283920118794294E-02 a       896     0    60     1    11
  1.5317647591909833E-01 a       897     0    60     1    12
  1.2715375742240975E+00 a       898     0    60     1    13
 -1.8665769728706298E+00 a       899     0    60     1    14
  6.3392933443423516E-01 a       900     0    60     1    15
 -3.7484216206625609E-01 a       901     0    61     1     1
  3.6032607211304577E+00 a       902     0    61     1     2
 -9.8381783544403148E-02 a       903     0    61     1     3
  1.5729276002806323E+00 a       904     0    61     1     4
 -2.3326465441144281E-01 a       905     0    61     1     5
  4.2353863212068094E-01 a       906     0    61     1     6
 -7.3377067569482049E-02 a       907     0    61     1     7
 -4.0745692796425939E+00 a       908     0    61     1     8
  4.4762731819766047E-02 a       909     0    61     1     9
  9.8765947892295280E-01 a       910     0    61     1    10
 -1.1040356648502178E-01 a       911     0    61     1    11
  1.4440404453263846E+00 a       912     0    61     1    12
 -1.1538551767117131E+00 a       913     0    61     1    13
 -5.7901796113256154E-01 a       914     0    61     1    14
 -1.1483281545594228E+00 a       915     0    61     1    15
 -6.1279439405101177E-01 a       916     0    62     1     1
 -3.5545006380979455E-01 a       917     0    62     1     2
 -2.8434102484372642E-02 a       918     0    62     1     3
  1.4702780320380751E-01 a       919     0    62     1     4
 -3.5047821557273395E-01 a       920     0    62     1     5
 -2.7140643878277493E-01 a       921     0    62     1     6
 -2.9348318928339640E-02 a       922     0    62     1     7
 -3.6613236216902451E-01 a       923     0    62     1     8
  7.6513820274189445E-02 a       924     0    62     1     9
 -3.1492510421621694E-01 a       925     0    62     1    10
 -2.3521154858721059E-02 a       926     0    62     1    11
  1.7430594314802786E-01 a       927     0    62     1    12
 -5.4463039452177475E-01 a       928     0    62     1    13
  5.7452815421707204E-01 a       929     0    62     1    14
 -3.3747116857941045E-01 a       930     0    62     1    15
  1.9990824282198549E+00 a       931     0    63     1     1
  2.8723999084533719E-01 a       932     0    63     1     2
 -2.3898114638075856E+00 a       933     0    63     1     3
  8.6136019828242660E-01 a       934     0    63     1     4
  1.6829267604965822E-01 a       935     0    63     1     5
 -8.4066250490238348E-01 a       936     0    63     1     6
  1.8787022693981301E-01 a       937     0    63     1     7
  4.2790397331619667E-01 a       938     0    63     1     8
  1.4764701314494671E-01 a       939     0    63     1     9
  5.1013768504248358E-01 a       940     0    63     1    10
  2.7907205667410104E-02 a       941     0    63     1    11
  1.1307095217447251E-02 a       942     0    63     1    12
 -8.0639110878332609E-01 a       943     0    63     1    13
 -3.2706723626478018E-01 a       944     0    63     1    14
 -3.9440930604997532E-01 a       945     0    63     1    15
  1.0601345465552250E+00 a       946     0    64     1     1
  2.9370413418992252E+00 a       947     0    64     1     2
 -2.2651400647337798E+00 a       948     0    64     1     3
 -1.6298531427356042E+00 a       949     0    64     1     4
 -1.4413305230875126E+00 a       950     0    64     1     5
 -1.4637748900211474E+00 a       951     0    64     1     6
 -2.1104474815166294E-01 a       952     0    64     1     7
  1.0399112967957398E+00 a       953     0    64     1     8
 -2.1142107641695862E+00 a       954     0    64     1     9
  7.1138052846662025E-02 a       955     0    64     1    10
 -1.6281703554825136E-01 a       956     0    64     1    11
  1.1749702759391791E+00 a       957     0    64     1    12
  3.4078932967604358E+00 a       958     0    64     1    13
 -1.8893939780269848E+00 a       959     0    64     1    14
 -2.1261401355331442E+00 a       960     0    64     1    15
 -8.2164174915578558E-01 a       961     0    65     1     1
  1.0224948910642830E+00 a       962     0    65     1     2
 -7.8294973110779736E-02 a       963     0    65     1     3
  2.6687204884842459E-02 a       964     0    65     1     4
  4.5597365427357855E-01 a       965     0    65     1     5
 -1.0334388376478006E-01 a       966     0    65     1     6
 -6.5821181334429393E-02 a       967     0    65     1     7
  3.0440545274376030E-01 a       968     0    65     1     8
 -2.0162841688237689E+00 a       969     0    65     1     9
  3.8960776155359644E-01 a       970     0    65     1    10
  1.3400375230458542E-01 a       971     0    65     1    11
 -5.9998339412686652E-01 a       972     0    65     1    12
  1.0151587889061944E+00 a       973     0    65     1    13
 -1.0538029183215640E+00 a       974     0    65     1    14
  1.3700557384608980E-01 a       975     0    65     1    15
 -2.4620654779623705E+00 a       976     0    66     1     1
  1.7050108204393183E-01 a       977     0    66     1     2
 -7.2341939560597723E-01 a       978     0    66     1     3
 -6.6902030444246718E-01 a       979     0    66     1     4
  2.9405417439338975E-02 a       980     0    66     1     5
 -3.2729640091363771E-01 a       981     0    66     1     6
  1.3793145219037621E-02 a       982     0    66     1     7
 -3.2647851943149214E-01 a       983     0    66     1     8
 -1.1075630132883868E-01 a       984     0    66     1     9
 -1.0692149195043303E+00 a       985     0    66     1    10
  7.3077882087205670E-02 a       986     0    66     1    11
 -2.5741062459323749E-01 a       987     0    66     1    12
 -1.2732969370449415E-01 a       988     0    66     1    13
  8.2758227828826736E-01 a       989     0    66     1    14
 -6.3826325353292537E-02 a       990     0    66     1    15
 -3.5545646613169053E+00 a       991     0    67     1     1
 -3.0106749332390703E+00 a       992     0    67     1     2
  3.1298486680721732E-01 a       993     0    67     1     3
  8.2963540659209722E-01 a       994     0    67     1     4
 -1.8230597438384719E-01 a       995     0    67     1     5
  1.9334414290830728E+00 a       996     0    67     1     6
 -2.0321066551878630E-01 a       997     0    67     1     7
  1.9732511591577016E+00 a       998     0    67     1     8
  1.9205607631487225E+00 a       999     0    67     1     9
 -2.5749151230824743E+00 a      1000     0    67     1    10
  4.3729032070193054E-02 a      1001     0    67     1    11
  3.4975745830533073E-01 a      1002     0    67     1    12
  3.2310066236639536E+00 a      1003     0    67     1    13
  7.0987812306339038E-01 a      1004     0    67     1    14
  5.2788691491089423E+00 a      1005     0    67     1    15
  1.2261713967597940E-01 a      1006     0    68     1     1
 -8.9709876935166000E-01 a      1007     0    68     1     2
 -2.7848554297585398E-01 a      1008     0    68     1     3
 -1.4539182512058516E-01 a      1009     0    68     1     4
 -3.3156022954857822E-01 a      1010     0    68     1     5
  1.7421820482015396E-01 a      1011     0    68     1     6
 -6.7474798835963799E-03 a      1012     0    68     1     7
 -8.8592841404501221E-01 a      1013     0    68     1     8
  1.6779878191116662E+00 a      1014     0    68     1     9
 -2.6542111342098557E-01 a      1015     0    68     1    10
 -6.1034166989409659E-02 a      1016     0    68     1    11
  1.3314814634447564E-01 a      1017     0    68     1    12
 -4.7417486673369580E-01 a      1018     0    68     1    13
  8.1449290767635774E-01 a      1019     0    68     1    14
 -1.0505872776161489E-01 a      1020     0    68     1    15
  1.5875222070755897E+00 a      1021     0    69     1     1
  6.2755928497905844E-01 a      1022     0    69     1     2
 -1.5264300047444132E-01 a      1023     0    69     1     3
  4.3477877759021238E-01 a      1024     0    69     1     4
 -7.4558509624251645E-02 a      1025     0    69     1     5
  4.5371860290089848E-02 a      1026     0    69     1     6
 -2.3294903562629265E-02 a      1027     0    69     1     7
 -2.7196052078033101E-01 a      1028     0    69     1     8
  1.5110484320436388E-01 a      1029     0    69     1     9
  1.0197700076866583E+00 a      1030     0    69     1    10
 -3.7428077926488043E-02 a      1031     0    69     1    11
  3.0306036504284450E-01 a      1032     0    69     1    12
 -8.9675402265350401E-01 a      1033     0    69     1    13
 -2.0302891097336703E-01 a      1034     0    69     1    14
 -2.7420749568300740E-01 a      1035     0    69     1    15
  2.6568291631095651E+00 a      1036     0    70     1     1
  2.9240239221723225E+00 a      1037     0    70     1     2
 -6.6474552072596893E-01 a      1038     0    70     1     3
 -9.1406901624810799E-01 a      1039     0    70     1     4
 -1.3944402727745514E-01 a      1040     0    70     1     5
 -1.5332117210934133E+00 a      1041     0    70     1     6
  2.0126616239835280E-02 a      1042     0    70     1     7
 -1.8166760870555103E+00 a      1043     0    70     1     8
 -1.8644983669315205E+00 a      1044     0    70     1     9
  9.7260803908681093E-01 a      1045     0    70     1    10
 -2.2636787632605248E-02 a      1046     0    70     1    11
  3.3712595370501708E-01 a      1047     0    70     1    12
 -1.6907483353401902E+00 a      1048     0    70     1    13
 -4.7963984317414765E-01 a      1049     0    70     1    14
 -2.5930415367807020E+00 a      1050     0    70     1    15
  9.4923397098609558E-02 a      1051     0    71     1     1
  1.8630056288870239E-01 a      1052     0    71     1     2
 -4.3941302833517115E-01 a      1053     0    71     1     3
  5.9667116312724999E-01 a      1054     0    71     1     4
 -1.8949354292123837E-02 a      1055     0    71     1     5
 -4.6456074243842649E-01 a      1056     0    71     1     6
  1.0334711154348525E-02 a      1057     0    71     1     7
 -1.7277103102874780E-02 a      1058     0    71     1     8
 -1.3367036834465444E+00 a      1059     0    71     1     9
 -4.7037182514011544E-01 a      1060     0    71     1    10
 -6.6676124558694053E-02 a      1061     0    71     1    11
 -2.2233986635351835E-01 a      1062     0    71     1    12
 -6.1481330804397238E-01 a      1063     0    71     1    13
 -1.3271195028730043E-01 a      1064     0    71     1    14
 -4.0192462000634283E-01 a      1065     0    71     1    15
  2.7835765367051193E-02 a      1066     0    72     1     1
  2.9476509336246187E-01 a      1067     0    72     1     2
 -1.1278470154760763E-01 a      1068     0    72     1     3
 -7.0120024994340960E-02 a      1069     0    72     1     4
 -1.9758923835091308E-01 a      1070     0    72     1     5
 -4.7246233743983052E-01 a      1071     0    72     1     6
 -3.0453422304904779E-02 a      1072     0    72     1     7
 -1.4442221834613800E-01 a      1073     0    72     1     8
 -4.1051251864836413E-01 a      1074     0    72     1     9
 -7.0925815543735105E-01 a      1075     0    72     1    10
  7.3751480345621246E-03 a      1076     0    72     1    11
 -1.2837152412727417E-02 a      1077     0    72     1    12
 -6.6229215664211416E-01 a      1078     0    72     1    13
  6.0103044723893595E-01 a      1079     0    72     1    14
 -5.1961858351109014E-01 a      1080     0    72     1    15
  9.2940249992783264E-01 a      1081     0    73     1     1
 -4.2662224391537379E-01 a      1082     0    73     1     2
  1.0647579381710180E-01 a      1083     0    73     1     3
 -4.7042422232668435E-01 a      1084     0    73     1     4
 -1.6934240923850910E-01 a      1085     0    73     1     5
  3.8371047857872258E-02 a      1086     0    73     1     6
 -1.3675151246712095E-02 a      1087     0    73     1     7
  7.5854458444846384E-01 a      1088     0    73     1     8
  2.0580593163568181E-01 a      1089     0    73     1     9
  7.4026648016307317E-01 a      1090     0    73     1    10
  1.5898355798793392E-02 a      1091     0    73     1    11
 -8.3843791037542104E-01 a      1092     0    73     1    12
 -1.7086330080778983E-01 a      1093     0    73     1    13
  2.7061307646044963E-01 a      1094     0    73     1    14
  3.6303043643789573E-01 a      1095     0    73     1    15
  2.3566402354098459E-01 a      1096     0    74     1     1
  1.0783483989945879E-01 a      1097     0    74     1     2
  9.1932351492898887E-03 a      1098     0    74     1     3
  3.7714843640192307E-02 a      1099     0    74     1     4
  7.0849522203027815E-02 a      1100     0    74     1     5
 -2.6134411700639525E-02 a      1101     0    74     1     6
  2.0357376986710907E-02 a      1102     0    74     1     7
  7.2568738045379155E-01 a      1103     0    74     1     8
 -1.6173458621299122E-01 a      1104     0    74     1     9
  6.8382235096608485E-02 a      1105     0    74     1    10
 -2.3513046514031216E-02 a      1106     0    74     1    11
  2.7139749481320811E-02 a      1107     0    74     1    12
  1.4032191511001538E-01 a      1108     0    74     1    13
 -2.3117128061988237E-01 a      1109     0    74     1    14
  9.0639281258494145E-02 a      1110     0    74     1    15
 -3.7583664117519344E-01 a      1111     0    75     1     1
 -6.3657851787061714E-01 a      1112     0    75     1     2
  3.9943534169395550E-01 a      1113     0    75     1     3
 -7.8142673400653687E-02 a      1114     0    75     1     4
 -4.8540303064708946E-02 a      1115     0    75     1     5
  9.3254861461392113E-02 a      1116     0    75     1     6
 -2.9144684954300931E-02 a      1117     0    75     1     7
  3.6724998221232696E-01 a      1118     0    75     1     8
 -2.5737731554482734E-02 a      1119     0    75     1     9
 -7.0086825274934061E-01 a      1120     0    75     1    10
  2.1377190087793357E-02 a      1121     0    75     1    11
 -3.6076592054929642E-02 a      1122     0    75     1    12
  5.8204818141400372E-01 a      1123     0    75     1    13
  7.4328241859956776E-02 a      1124     0    75     1    14
  2.2998633046956138E-01 a      1125     0    75     1    15
 -1.0434576211804116E+00 a      1126     0    76     1     1
 -1.8548619910603219E+00 a      1127     0    76     1     2
  6.6583350304384326E-01 a      1128     0    76     1     3
  4.2990463822176017E-01 a      1129     0    76     1     4
  1.9961372626231688E-01 a      1130     0    76     1     5
  7.0248219851353932E-01 a      1131     0    76     1     6
  2.5379867338357294E-02 a      1132     0    76     1     7
  1.0102993434740990E+00 a      1133     0    76     1     8
  1.2542077654753425E+00 a      1134     0    76     1     9
 -3.7478260412645077E-02 a      1135     0    76     1    10
 -2.2509821655733966E-02 a      1136     0    76     1    11
 -6.1157030334867535E-01 a      1137     0    76     1    12
  1.1728827862101021E-01 a      1138     0    76     1    13
  1.2524506429354747E-02 a      1139     0    76     1    14
  5.9460454403426710E-01 a      1140     0    76     1    15
 -5.7071557959493369E-01 b      1141     1     1
 -2.8215369730332307E-01 b      1142     1     2
 -7.8791026466205741E-02 b      1143     1     3
  1.6123058062563719E-01 b      1144     1     4
  7.0038586098328759E-01 b      1145     1     5
  3.7216350289108235E-01 b      1146     1     6
 -6.6449008202465298E-02 b      1147     1     7
  3.2676867108790225E-01 b      1148     1     8
 -6.0075627011077840E-02 b      1149     1     9
  1.0905019207694993E+00 b      1150     1    10
 -5.0283313917803896E-01 b      1151     1    11
  3.5825240410046706E-02 b      1152     1    12
  5.9364681799639329E-01 b      1153     1    13
  4.1405259019040053E-01 b      1154     1    14
 -5.5075136670937441E-01 b      1155     1    15
 -1.0586212509372606E+00 a      1156     1     1     2     1
  6.8641363893764695E-01 a      1157     1     1     2     2
  3.6787892448395881E-01 a      1158     1     1     2     3
 -2.2289680695291478E+00 a      1159     1     1     2     4
  2.3058173176254840E-01 a      1160     1     1     2     5
  1.4965559502283647E+00 a      1161     1     1     2     6
 -9.2742520011298435E-01 a      1162     1     1     2     7
  1.5222089241554237E+00 a      1163     1     1     2     8
  1.0339541456444865E+00 a      1164     1     1     2     9
 -6.9413958147233135E-01 a      1165     1     1     2    10
  9.2544990971405583E-01 a      1166     1     1     2    11
 -4.8091695189274086E-01 a      1167     1     1     2    12
  2.0322020900886453E+00 a      1168     1     1     2    13
  1.6906123940265163E+00 a      1169     1     1     2    14
 -3.6927863371499092E+00 a      1170     1     1     2    15
  2.3951530898849635E-01 a      1171     1     2     2     1
  8.0100427618094483E-01 a      1172     1     2     2     2
  1.2911533582374961E+00 a      1173     1     2     2     3
  5.5722611624491836E-01 a      1174     1     2     2     4
  2.3239178151638740E-01 a      1175     1     2     2     5
  1.8101482097787600E-01 a      1176     1     2     2     6
 -1.1002276534261857E+00 a      1177     1     2     2     7
 -2.4251528665809344E-01 a      1178     1     2     2     8
  3.7358148484575060E-01 a      1179     1     2     2     9
  1.3147269597727007E-01 a      1180     1     2     2    10
 -3.0868445173510537E-02 a      1181     1     2     2    11
  8.2426861453302400E-02 a      1182     1     2     2    12
 -3.1510951793494335E-01 a      1183     1     2     2    13
  6.2390888862886196E-01 a      1184     1     2     2    14
 -2.6735098652112317E+00 a      1185     1     2     2    15
  4.7902746980676442E-01 a      1186     1     3     2     1
 -6.0871388419365680E-01 a      1187     1     3     2     2
 -1.1208426087319252E+00 a      1188     1     3     2     3
  4.9087422574190426E-01 a      1189     1     3     2     4
 -6.6385320242660056E-02 a      1190     1     3     2     5
 -9.6390215684562408E-01 a      1191     1     3     2     6
  6.3680973253989992E-01 a      1192     1     3     2     7
 -6.6931987938578116E-02 a      1193     1     3     2     8
 -3.3889211029380473E-01 a      1194     1     3     2     9
  2.5410008266199630E-01 a      1195     1     3     2    10
  3.3878554681231254E-01 a      1196     1     3     2    11
  4.6671503837573064E-01 a      1197     1     3     2    12
  6.7453397064358867E-01 a      1198     1     3     2    13
 -2.3695877795663614E-01 a      1199     1     3     2    14
 -4.6851877096220882E+00 a      1200     1     3     2    15
 -8.1790799752786836E-01 a      1201     1     4     2     1
  2.3376131789528706E-01 a      1202     1     4     2     2
 -2.0204892282030578E+00 a      1203     1     4     2     3
  4.2349993578744298E+00 a      1204     1     4     2     4
 -8.4828136854268077E-01 a      1205     1     4     2     5
  1.2680690494079028E-01 a      1206     1     4     2     6
  1.6262504179356505E+00 a      1207     1     4     2     7
  5.3173579944859883E-01 a      1208     1     4     2     8
 -1.1698358500147406E+00 a      1209     1     4     2     9
 -4.3530329138655471E-01 a      1210     1     4     2    10
  5.3492728090005581E-01 a      1211     1     4     2    11
  4.0833608729530452E-01 a      1212     1     4     2    12
  3.5008178101751319E+00 a      1213     1     4     2    13
 -1.3984497141599095E+00 a      1214     1     4     2    14
  3.9860807900516209E+00 a      1215     1     4     2    15
 -9.6954853578535261E-01 a      1216     1     5     2     1
  1.1996741999166284E-03 a      1217     1     5     2     2
  1.6911046086606918E+00 a      1218     1     5     2     3
 -1.4396933348680210E+00 a      1219     1     5     2     4
 -1.0061856137369485E+00 a      1220     1     5     2     5
  6.8052904995029584E-01 a      1221     1     5     2     6
 -5.9299607773301288E-01 a      1222     1     5     2     7
 -6.5941690990165447E-01 a      1223     1     5     2     8
 -4.1198592208057638E-01 a      1224     1     5     2     9
  6.2900139857994489E-02 a      1225     1     5     2    10
  1.4411207832675166E-01 a      1226     1     5     2    11
  3.4546270948041604E+00 a      1227     1     5     2    12
 -8.7354403311293398E-03 a      1228     1     5     2    13
  1.6801751247412076E+00 a      1229     1     5     2    14
  7.0032202136447552E-01 a      1230     1     5     2    15
 -5.4932193311651334E-01 a      1231     1     6     2     1
 -1.0837406071659597E+00 a      1232     1     6     2     2
  4.0315129733941407E-01 a      1233     1     6     2     3
 -1.5896337888637646E-01 a      1234     1     6     2     4
  2.0113307886256002E-01 a      1235     1     6     2     5
  4.9881888837839800E-01 a      1236     1     6     2     6
  3.5207493571866599E-01 a      1237     1     6     2     7
  2.2734702956512587E-02 a      1238     1     6     2     8
  4.9049731608316161E-01 a      1239     1     6     2     9
 -1.7842369672705718E-02 a      1240     1     6     2    10
 -1.1420834377113516E-01 a      1241     1     6     2    11
 -1.8441739760037579E+00 a      1242     1     6     2    12
  3.7895746359466589E+00 a      1243     1     6     2    13
  3.5117048573245058E-01 a      1244     1     6     2    14
  1.5684557832257522E+00 a      1245     1     6     2    15
  1.6716192846173572E+00 a      1246     1     7     2     1
  2.3274284296438963E+00 a      1247     1     7     2     2
  3.9525981275344008E-01 a      1248     1     7     2     3
  2.8011330937101868E+00 a      1249     1     7     2     4
  2.3460870265530240E+00 a      1250     1     7     2     5
  4.9802698356471692E-01 a      1251     1     7     2     6
 -6.2777728638712493E-01 a      1252     1     7     2     7
  2.6732811372229799E+00 a      1253     1     7     2     8
  8.5375233443147303E-01 a      1254     1     7     2     9
 -9.5848062746696361E-01 a      1255     1     7     2    10
  1.2571140904989748E+00 a      1256     1     7     2    11
  4.5732245053304510E+00 a      1257     1     7     2    12
 -8.9774860126118856E+00 a      1258     1     7     2    13
 -1.2833494010570188E+00 a      1259     1     7     2    14
  2.3280374290948282E+00 a      1260     1     7     2    15
  1.7175973939619060E-01 a      1261     1     8     2     1
 -7.5815841734744660E-01 a      1262     1     8     2     2
  1.6016126932944408E+00 a      1263     1     8     2     3
  5.3358890862447425E-02 a      1264     1     8     2     4
 -4.5505115530804868E-01 a      1265     1     8     2     5
  9.4631524407359613E-01 a      1266     1     8     2     6
 -9.3192338064208469E-01 a      1267     1     8     2     7
 -1.0671482093138236E+00 a      1268     1     8     2     8
 -2.6450364776525997E-01 a      1269     1     8     2     9
  6.4959240812103969E-01 a      1270     1     8     2    10
 -3.9565875144292761E-01 a      1271     1     8     2    11
  3.4601225799556568E-01 a      1272     1     8     2    12
 -2.2372405103173031E-02 a      1273     1     8     2    13
  3.0506666951129002E+00 a      1274     1     8     2    14
 -2.3480860073355309E-01 a      1275     1     8     2    15
 -4.8229923746615586E-03 a      1276     1     9     2     1
  3.1452714117909869E-01 a      1277     1     9     2     2
 -3.9949080784483720E-01 a      1278     1     9     2     3
  3.7890600777360103E-02 a      1279     1     9     2     4
 -2.7858276330224124E-01 a      1280     1     9     2     5
  4.9610509489522439E-03 a      1281     1     9     2     6
 -2.2422529939452575E-02 a      1282     1     9     2     7
 -2.1463666105397414E-01 a      1283     1     9     2     8
 -3.5128726723865961E-01 a      1284     1     9     2     9
  7.8129963613899359E-02 a      1285     1     9     2    10
  4.8837279915259324E-02 a      1286     1     9     2    11
  6.4379933827131641E-01 a      1287     1     9     2    12
  6.2724426443107759E-02 a      1288     1     9     2    13
  6.3786712370966914E-01 a      1289     1     9     2    14
 -5.5553753106300769E+00 a      1290     1     9     2    15
  6.1042021401720631E-02 a      1291     1    10     2     1
  1.4045425166401646E-01 a      1292     1    10     2     2
  7.6591542045738437E-01 a      1293     1    10     2     3
  4.5728489994978605E-01 a      1294     1    10     2     4
  4.2681532233822969E-02 a      1295     1    10     2     5
 -1.0157915303127911E+00 a      1296     1    10     2     6
 -8.5680990701254678E-01 a      1297     1    10     2     7
  4.4229552637937880E-01 a      1298     1    10     2     8
  1.8652028461106543E-02 a      1299     1    10     2     9
 -4.2187805188825500E-01 a      1300     1    10     2    10
 -1.0844978276685491E-01 a      1301     1    10     2    11
 -3.4178312009619747E+00 a      1302     1    10     2    12
 -1.7491106781473760E+00 a      1303     1    10     2    13
 -3.5855400216510471E+00 a      1304     1    10     2    14
 -1.2567059519895842E+00 a      1305     1    10     2    15
 -7.4229314830303694E-01 a      1306     1    11     2     1
  2.7522635954973955E+00 a      1307     1    11     2     2
 -6.5015181711514089E-02 a      1308     1    11     2     3
  8.8618979904925741E+00 a      1309     1    11     2     4
 -8.0562354216903542E-01 a      1310     1    11     2     5
 -5.6737691997376494E-01 a      1311     1    11     2     6
  4.3832546119987159E-01 a      1312     1    11     2     7
  4.1850746413929540E-01 a      1313     1    11     2     8
 -1.6792944159317558E+00 a      1314     1    11     2     9
 -9.1216378248851071E-01 a      1315     1    11     2    10
  1.7126286969998197E+00 a      1316     1    11     2    11
  2.0353360800166391E+00 a      1317     1    11     2    12
  5.9326533076066428E-03 a      1318     1    11     2    13
 -1.9742810405034994E+00 a      1319     1    11     2    14
 -3.2823015105382849E+00 a      1320     1    11     2    15
  1.1252627420442372E+00 a      1321     1    12     2     1
  5.0082377246690268E-01 a      1322     1    12     2     2
  2.1092118682367555E+00 a      1323     1    12     2     3
 -6.0466994475988511E-01 a      1324     1    12     2     4
  4.1167335590834908E-01 a      1325     1    12     2     5
  9.2543334081143447E-01 a      1326     1    12     2     6
 -1.8190197438936966E+00 a      1327     1    12     2     7
  1.9314120786415420E-01 a      1328     1    12     2     8
  5.2685132332576456E-01 a      1329     1    12     2     9
  4.1957094550995327E-01 a      1330     1    12     2    10
 -2.0235974641844517E-01 a      1331     1    12     2    11
 -6.9783554636664813E-01 a      1332     1    12     2    12
  2.1970599994870881E+00 a      1333     1    12     2    13
 -8.5694665245707236E-01 a      1334     1    12     2    14
  3.2251793338894386E+00 a      1335     1    12     2    15
 -4.3800659283438076E-01 a      1336     1    13     2     1
 -2.7024291962593638E-01 a      1337     1    13     2     2
  3.5341602560223367E-01 a      1338     1    13     2     3
  7.8806959126986131E-01 a      1339     1    13     2     4
 -5.0817334614912479E-01 a      1340     1    13     2     5
 -2.6944460599206660E-02 a      1341     1    13     2     6
  7.0184725945791740E-02 a      1342     1    13     2     7
  2.0687680680599302E-01 a      1343     1    13     2     8
 -4.0697459882056564E-01 a      1344     1    13     2     9
 -1.2481554148927786E-01 a      1345     1    13     2    10
  4.1086951935565397E-01 a      1346     1    13     2    11
  1.5456240118873301E+00 a      1347     1    13     2    12
  1.4072830852996949E+00 a      1348     1    13     2    13
 -9.5743361545755046E-01 a      1349     1    13     2    14
  3.5364623163599873E+00 a      1350     1    13     2    15
 -8.8746977358165979E-01 a      1351     1    14     2     1
 -1.5047838212619093E+00 a      1352     1    14     2     2
 -3.0767107468491179E+00 a      1353     1    14     2     3
  5.8112005077038098E-01 a      1354     1    14     2     4
 -9.9416265312970420E-01 a      1355     1    14     2     5
  2.6369861773447263E+00 a      1356     1    14     2     6
  2.6612329305181910E+00 a      1357     1    14     2     7
 -6.6030640522323325E-01 a      1358     1    14     2     8
 -1.1064154682888649E+00 a      1359     1    14     2     9
  3.6973461709972683E-01 a      1360     1    14     2    10
 -6.5644775912663245E-01 a      1361     1    14     2    11
 -4.9824342981967815E+00 a      1362     1    14     2    12
  1.7634727106814270E+00 a      1363     1    14     2    13
 -5.7390761871365843E+00 a      1364     1    14     2    14
 -5.6736428466169215E+00 a      1365     1    14     2    15
  5.4362020716733739E-01 a      1366     1    15     2     1
  2.0354670907771283E-01 a      1367     1    15     2     2
 -8.6095028249340413E-02 a      1368     1    15     2     3
  2.5477597734919217E+00 a      1369     1    15     2     4
  2.8995324316260118E-01 a      1370     1    15     2     5
  1.1541384346777983E+00 a      1371     1    15     2     6
  1.5000931267554327E-01 a      1372     1    15     2     7
 -3.0855271363115133E-01 a      1373     1    15     2     8
  1.8222101615115921E-01 a      1374     1    15     2     9
  6.2431165337128913E-01 a      1375     1    15     2    10
  9.7615607729745466E-02 a      1376     1    15     2    11
 -4.4062340285525935E-02 a      1377     1    15     2    12
 -1.0518950257770106E+00 a      1378     1    15     2    13
 -1.1645932649617008E+00 a      1379     1    15     2    14
 -2.7568349849161494E-01 a      1380     1    15     2    15
  1.0461908651614826E+00 b      1381     2     1
 -4.5980206470942231E-01 b      1382     2     2
 -1.5346978601007426E+00 b      1383     2     3
 -7.3404162454039179E-01 b      1384     2     4
 -8.3026149976863750E-01 b      1385     2     5
 -2.9826364851633782E+00 b      1386     2     6
  8.9100809615987420E-01 b      1387     2     7
 -6.3513227501095421E-02 b      1388     2     8
 -1.5426275564077868E-01 b      1389     2     9
  2.1289361783140864E-01 b      1390     2    10
 -1.0362369185286207E+00 b      1391     2    11
 -4.7200224693959267E+00 b      1392     2    12
  3.0075967577447054E-02 b      1393     2    13
  9.2088255176442890E-01 b      1394     2    14
 -2.3121613405027652E+00 b      1395     2    15
 -3.7396231146879549E-01 a      1396     2     1     3     1
  1.5167365416717654E-01 a      1397     2     2     3     1
  6.1337166673393777E-02 a      1398     2     3     3     1
 -1.7491486021510891E+00 a      1399     2     4     3     1
 -1.0526569199278009E+00 a      1400     2     5     3     1
 -1.8327077564274644E-01 a      1401     2     6     3     1
  1.4913216915155811E-01 a      1402     2     7     3     1
  4.5047218184281645E-01 a      1403     2     8     3     1
  7.8034654458914599E-01 a      1404     2     9     3     1
  9.9530938387193713E-01 a      1405     2    10     3     1
 -4.3286949331102692E-01 a      1406     2    11     3     1
  9.0791523291124876E-01 a      1407     2    12     3     1
  5.6191624224656428E-02 a      1408     2    13     3     1
 -8.4596626763778027E-01 a      1409     2    14     3     1
  7.5535113768906570E-01 a      1410     2    15     3     1
  9.9570951096458660E-01 b      1411     3     1
