################################################################################
# Neural network connection values (weights and biases).
################################################################################
# Col  Name       Description
################################################################################
# 1    connection Neural network connection value.
# 2    t          Connection type (a = weight, b = bias).
# 3    index      Index enumerating weights.
# 4    l_s        Starting point layer (end point layer for biases).
# 5    n_s        Starting point neuron in starting layer (end point neuron for biases).
# 6    l_e        End point layer.
# 7    n_e        End point neuron in end layer.
################################################################################
#                      1 2         3     4     5     6     7
#             connection t     index   l_s   n_s   l_e   n_e
############################################################
  3.8752577893907869E+00 a         1     0     1     1     1
 -2.3337321333938008E+00 a         2     0     1     1     2
 -1.4032426352832383E+00 a         3     0     1     1     3
 -4.4843147734718458E-01 a         4     0     1     1     4
  4.1393631815434845E-02 a         5     0     1     1     5
 -7.1651774019572723E-01 a         6     0     1     1     6
  2.2015006337931062E+00 a         7     0     1     1     7
 -1.0711239615321058E+00 a         8     0     1     1     8
 -3.6531950370170883E+00 a         9     0     1     1     9
 -7.2674891749669279E-01 a        10     0     1     1    10
 -5.0058138636140592E+00 a        11     0     1     1    11
 -3.0654745847258386E-01 a        12     0     1     1    12
  2.7325927633360374E+00 a        13     0     1     1    13
 -4.8117449509829713E-01 a        14     0     1     1    14
  1.8890149549462784E-01 a        15     0     1     1    15
 -5.6903716741678378E-02 a        16     0     2     1     1
 -1.0586450061639339E+00 a        17     0     2     1     2
 -9.7254440518678853E-01 a        18     0     2     1     3
 -2.9219611080582303E-01 a        19     0     2     1     4
  1.2293681876479976E+00 a        20     0     2     1     5
  1.2178016738767473E-01 a        21     0     2     1     6
  1.7610900974768655E+00 a        22     0     2     1     7
  3.6934289951846710E+00 a        23     0     2     1     8
  1.0357952554915320E+00 a        24     0     2     1     9
  9.8322878871585584E-02 a        25     0     2     1    10
  2.2936507885222874E+00 a        26     0     2     1    11
  1.2809553796394411E+00 a        27     0     2     1    12
  1.9383147039434374E+00 a        28     0     2     1    13
 -3.6341786844732478E+00 a        29     0     2     1    14
 -1.9827222451215789E+00 a        30     0     2     1    15
 -9.0463206117579320E-01 a        31     0     3     1     1
  7.9900182370775308E-01 a        32     0     3     1     2
  2.0813674217759361E+00 a        33     0     3     1     3
 -1.5667744081120742E+00 a        34     0     3     1     4
 -1.3723850639489066E+00 a        35     0     3     1     5
 -2.0583727897632453E+00 a        36     0     3     1     6
 -3.2924367744407818E-01 a        37     0     3     1     7
  2.1195864750771252E+00 a        38     0     3     1     8
  2.0060917313444451E+00 a        39     0     3     1     9
  1.2343311744757823E+00 a        40     0     3     1    10
  7.1241016762143905E-01 a        41     0     3     1    11
 -4.0275382305255550E-03 a        42     0     3     1    12
  1.4484513028298216E+00 a        43     0     3     1    13
  4.6547212342439276E-01 a        44     0     3     1    14
 -2.6113520415809020E+00 a        45     0     3     1    15
 -6.6953034752315954E-01 a        46     0     4     1     1
  9.4868647104828799E-02 a        47     0     4     1     2
  1.4296720353637333E+00 a        48     0     4     1     3
 -6.8232419188044513E-01 a        49     0     4     1     4
  6.4794685668260699E-01 a        50     0     4     1     5
  1.3772248243394789E+00 a        51     0     4     1     6
 -8.0518121187473446E-01 a        52     0     4     1     7
 -1.1863377582300542E-01 a        53     0     4     1     8
 -3.1728509302952559E+00 a        54     0     4     1     9
  1.9449320466709835E-01 a        55     0     4     1    10
 -2.9143577434234755E+00 a        56     0     4     1    11
  7.6078351715257375E-01 a        57     0     4     1    12
  2.7038703372217037E+00 a        58     0     4     1    13
 -3.3099607922139712E-01 a        59     0     4     1    14
 -5.1340283821946046E-02 a        60     0     4     1    15
 -3.8811092451004670E+00 a        61     0     5     1     1
  2.5595282835883695E+00 a        62     0     5     1     2
  8.7747265696951415E-01 a        63     0     5     1     3
 -1.1055477647924890E+00 a        64     0     5     1     4
 -6.3546160021816289E-01 a        65     0     5     1     5
  3.1467809295641469E-01 a        66     0     5     1     6
 -2.2049403985232296E+00 a        67     0     5     1     7
  3.0219702909068551E+00 a        68     0     5     1     8
  3.8439383858648863E+00 a        69     0     5     1     9
  1.6060688485422696E+00 a        70     0     5     1    10
  4.0357598231827412E+00 a        71     0     5     1    11
  1.4316805365263923E+00 a        72     0     5     1    12
  4.2562429054988798E-01 a        73     0     5     1    13
  1.7179679173870741E+00 a        74     0     5     1    14
 -1.5455156996392492E+00 a        75     0     5     1    15
  6.1445141244929648E-02 a        76     0     6     1     1
  1.0761219687213179E+00 a        77     0     6     1     2
  2.4514202164651100E+00 a        78     0     6     1     3
 -1.6480037206041673E+00 a        79     0     6     1     4
 -1.3260287397597181E+00 a        80     0     6     1     5
  2.8091440328143241E-01 a        81     0     6     1     6
 -2.2525666094879755E+00 a        82     0     6     1     7
 -2.9502699380826249E+00 a        83     0     6     1     8
 -2.1973155869017247E+00 a        84     0     6     1     9
 -4.6039854674562869E-01 a        85     0     6     1    10
 -4.2765251507649671E+00 a        86     0     6     1    11
  2.9561284719501779E-01 a        87     0     6     1    12
  7.4721240315502913E-01 a        88     0     6     1    13
  2.7092897543695238E+00 a        89     0     6     1    14
  4.2632872277004319E-01 a        90     0     6     1    15
 -3.6146475900185533E+00 a        91     0     7     1     1
  7.8553209650322409E-01 a        92     0     7     1     2
 -2.3736455275058344E+00 a        93     0     7     1     3
 -2.2014149893865307E+00 a        94     0     7     1     4
 -4.2673822328627964E-01 a        95     0     7     1     5
  4.2028591633228745E+00 a        96     0     7     1     6
 -7.9599333493336399E-01 a        97     0     7     1     7
  2.3685088352388961E+00 a        98     0     7     1     8
 -3.0508476727743505E-01 a        99     0     7     1     9
 -1.1269107199666879E+00 a       100     0     7     1    10
  1.8926227393796820E+00 a       101     0     7     1    11
  2.0201008069425561E+00 a       102     0     7     1    12
 -2.3459607871767387E+00 a       103     0     7     1    13
  1.8397784823690606E+00 a       104     0     7     1    14
  1.1953293432736272E+00 a       105     0     7     1    15
  4.2441126136972629E-01 a       106     0     8     1     1
 -2.3977209408257925E+00 a       107     0     8     1     2
 -5.4171404512238563E+00 a       108     0     8     1     3
 -2.2101974761088026E+00 a       109     0     8     1     4
 -1.1094573416738478E+00 a       110     0     8     1     5
 -7.5095284487097098E+00 a       111     0     8     1     6
 -1.3854452915685871E+00 a       112     0     8     1     7
 -1.2404963007344285E+00 a       113     0     8     1     8
  3.8858172944092408E+00 a       114     0     8     1     9
  3.7952180130193041E+00 a       115     0     8     1    10
  5.1253954255312202E+00 a       116     0     8     1    11
  4.4206934483792054E-01 a       117     0     8     1    12
 -1.2926063453339984E+00 a       118     0     8     1    13
  4.1375729986350178E+00 a       119     0     8     1    14
  3.7276990850959493E+00 a       120     0     8     1    15
  3.9784124283883338E+00 a       121     0     9     1     1
 -9.9632508846114465E-01 a       122     0     9     1     2
 -5.9183081848754171E-01 a       123     0     9     1     3
 -8.0993939755757949E-01 a       124     0     9     1     4
  1.9750062381281754E+00 a       125     0     9     1     5
 -3.3270471380969863E-01 a       126     0     9     1     6
  1.3086163505459742E+00 a       127     0     9     1     7
 -4.0516160034362922E+00 a       128     0     9     1     8
 -6.3593583184142695E+00 a       129     0     9     1     9
  8.8524689288709146E-01 a       130     0     9     1    10
 -2.9570154205682564E+00 a       131     0     9     1    11
 -9.9435599001741148E-01 a       132     0     9     1    12
 -3.8234367456193250E+00 a       133     0     9     1    13
 -2.9979212113702345E+00 a       134     0     9     1    14
  2.2508491079591688E+00 a       135     0     9     1    15
 -1.4850695531788087E+00 a       136     0    10     1     1
 -1.9198495188878588E+00 a       137     0    10     1     2
  2.7247616075233361E+00 a       138     0    10     1     3
 -1.6372854555139218E+00 a       139     0    10     1     4
  9.4102700459853661E-01 a       140     0    10     1     5
  9.3661837643433188E+00 a       141     0    10     1     6
  1.8015618685480843E+00 a       142     0    10     1     7
  5.5098861239216506E+00 a       143     0    10     1     8
 -3.3420317675052171E+00 a       144     0    10     1     9
 -1.5147744184395002E+00 a       145     0    10     1    10
  2.1164234981383512E+00 a       146     0    10     1    11
 -1.1686056461265373E-01 a       147     0    10     1    12
 -3.9046003809797285E+00 a       148     0    10     1    13
  8.4516932667507660E+00 a       149     0    10     1    14
 -1.9383999658732836E+00 a       150     0    10     1    15
  1.1407057477584521E+00 a       151     0    11     1     1
 -4.4877346508108893E+00 a       152     0    11     1     2
  6.8171886421145877E-01 a       153     0    11     1     3
  2.7419938444108087E+00 a       154     0    11     1     4
  3.4089337710614527E+00 a       155     0    11     1     5
 -1.8587742297710679E+00 a       156     0    11     1     6
  1.8523174750210065E+00 a       157     0    11     1     7
 -5.7098841493879062E+00 a       158     0    11     1     8
  1.3635418089413334E+00 a       159     0    11     1     9
 -3.3693187164555277E-01 a       160     0    11     1    10
  4.8799531476702285E+00 a       161     0    11     1    11
 -5.5486699051710686E-01 a       162     0    11     1    12
 -2.1765072575656399E+00 a       163     0    11     1    13
 -1.9187552810125530E+00 a       164     0    11     1    14
  2.3031240171139848E+00 a       165     0    11     1    15
 -3.5938636866779927E-01 a       166     0    12     1     1
  4.0259043799434791E+00 a       167     0    12     1     2
 -6.7958946891066763E-01 a       168     0    12     1     3
  3.7798688813487988E+00 a       169     0    12     1     4
  3.3344757386256090E+00 a       170     0    12     1     5
 -1.8710637269225552E+00 a       171     0    12     1     6
  3.1865304086924601E-01 a       172     0    12     1     7
 -2.0447992638808827E+00 a       173     0    12     1     8
  1.2146701505620483E+00 a       174     0    12     1     9
 -7.0110612764244393E-02 a       175     0    12     1    10
 -1.2248844518963202E+00 a       176     0    12     1    11
 -1.7778755830580246E+00 a       177     0    12     1    12
  4.1633504986200913E+00 a       178     0    12     1    13
 -7.1948495782783324E+00 a       179     0    12     1    14
  2.0009123872052812E+00 a       180     0    12     1    15
 -1.5780951557073941E+00 a       181     0    13     1     1
  2.4930869718676898E+00 a       182     0    13     1     2
  6.8753515174962954E-01 a       183     0    13     1     3
  4.0715425247472464E-01 a       184     0    13     1     4
  7.1714117114375664E-01 a       185     0    13     1     5
  2.3350679478459457E+00 a       186     0    13     1     6
 -1.4240524589791186E+00 a       187     0    13     1     7
  3.1441121960354423E+00 a       188     0    13     1     8
  1.8807816048355441E+00 a       189     0    13     1     9
  7.9220490344663080E-02 a       190     0    13     1    10
 -8.7000492003881336E-01 a       191     0    13     1    11
  2.5427649907452499E-01 a       192     0    13     1    12
  2.7206844873724285E+00 a       193     0    13     1    13
  4.4313731973951542E+00 a       194     0    13     1    14
 -3.0534712760962570E+00 a       195     0    13     1    15
  3.3634776670374393E-02 a       196     0    14     1     1
 -1.8864034628603379E+00 a       197     0    14     1     2
  2.7951924996727651E-01 a       198     0    14     1     3
 -1.2896215050774387E+00 a       199     0    14     1     4
 -2.6635094761858156E+00 a       200     0    14     1     5
  4.9540013336391059E-01 a       201     0    14     1     6
  2.8227089401983063E-01 a       202     0    14     1     7
 -8.2154963271759551E-01 a       203     0    14     1     8
 -8.7299732468968350E-01 a       204     0    14     1     9
 -6.6747749508821552E-01 a       205     0    14     1    10
 -3.2341117420875637E-01 a       206     0    14     1    11
  1.5527710115556539E+00 a       207     0    14     1    12
 -7.6579381011995173E-01 a       208     0    14     1    13
  7.5778111772148860E-01 a       209     0    14     1    14
 -6.0399467788378158E-01 a       210     0    14     1    15
  5.6079410628378734E-01 a       211     0    15     1     1
 -6.8146546468951086E-01 a       212     0    15     1     2
 -4.5176957060161582E-01 a       213     0    15     1     3
 -2.2861885678725780E+00 a       214     0    15     1     4
  6.2667124226150228E-01 a       215     0    15     1     5
 -1.0503961073468016E+00 a       216     0    15     1     6
  1.5681668604885206E+00 a       217     0    15     1     7
  3.7776374202373780E-01 a       218     0    15     1     8
 -7.5244362031796053E-01 a       219     0    15     1     9
 -4.2629663973723375E-01 a       220     0    15     1    10
 -1.0876223561755295E-01 a       221     0    15     1    11
 -6.1656468222866312E-01 a       222     0    15     1    12
  7.4833714688225514E-02 a       223     0    15     1    13
 -1.0042851768186445E+00 a       224     0    15     1    14
  1.1700539699044981E+00 a       225     0    15     1    15
  6.6561436417748934E-02 a       226     0    16     1     1
  2.0616880792923201E-01 a       227     0    16     1     2
 -1.3278923111366037E-01 a       228     0    16     1     3
  3.7624475294529891E-01 a       229     0    16     1     4
  3.6494272505433090E-01 a       230     0    16     1     5
 -1.2801516369050900E-01 a       231     0    16     1     6
 -3.1833985306480395E-01 a       232     0    16     1     7
  2.0550923628103271E-01 a       233     0    16     1     8
  3.1693295501822871E-01 a       234     0    16     1     9
  2.0247002604750444E-01 a       235     0    16     1    10
  6.1144990783465920E-02 a       236     0    16     1    11
 -4.5746172147654207E-01 a       237     0    16     1    12
 -1.8047174753101985E-01 a       238     0    16     1    13
  3.2860393471449638E-02 a       239     0    16     1    14
  1.9947096179839130E-01 a       240     0    16     1    15
 -1.0026883772022533E+01 a       241     0    17     1     1
  7.1825772185046990E+00 a       242     0    17     1     2
  7.5039601766469077E-01 a       243     0    17     1     3
  1.6228265353608438E+00 a       244     0    17     1     4
 -4.9202402112948018E+00 a       245     0    17     1     5
  5.5933452985493979E+00 a       246     0    17     1     6
 -1.4028008263677529E+00 a       247     0    17     1     7
 -5.4258419181487039E+00 a       248     0    17     1     8
  2.6679500685492599E+00 a       249     0    17     1     9
  9.6028945809380617E-01 a       250     0    17     1    10
  4.3686615115506555E-01 a       251     0    17     1    11
  8.3680889747216336E-01 a       252     0    17     1    12
  3.0628980937170307E+00 a       253     0    17     1    13
  7.6049833928011379E-01 a       254     0    17     1    14
 -2.8107455437560689E+00 a       255     0    17     1    15
 -1.4045663094246419E+00 a       256     0    18     1     1
 -6.1326913681255180E-01 a       257     0    18     1     2
 -2.7222207258453691E-02 a       258     0    18     1     3
 -1.5770848076260846E+00 a       259     0    18     1     4
  1.4792094855317819E-02 a       260     0    18     1     5
  3.2627752533445298E-01 a       261     0    18     1     6
  1.5558102563911577E-01 a       262     0    18     1     7
  1.6728415715924069E-01 a       263     0    18     1     8
  6.7870233348222897E-01 a       264     0    18     1     9
  5.6640742729385296E-01 a       265     0    18     1    10
  3.1218436581158231E-02 a       266     0    18     1    11
  4.4876053482810907E-01 a       267     0    18     1    12
  3.6754461661491349E+00 a       268     0    18     1    13
 -1.2845138299478115E-01 a       269     0    18     1    14
 -7.0959250197486357E-01 a       270     0    18     1    15
  6.3317398961931985E+00 a       271     0    19     1     1
 -2.4945548556777246E+00 a       272     0    19     1     2
 -2.4455686309360428E-01 a       273     0    19     1     3
 -1.7450747300088076E+00 a       274     0    19     1     4
  2.5831142927087813E+00 a       275     0    19     1     5
 -1.1228499047756178E-01 a       276     0    19     1     6
  3.5911436952815299E+00 a       277     0    19     1     7
  1.4999345128051091E+00 a       278     0    19     1     8
  4.7086463710330566E+00 a       279     0    19     1     9
 -2.2532695580327408E-01 a       280     0    19     1    10
 -1.2384577442712861E+00 a       281     0    19     1    11
 -3.0400874836206504E+00 a       282     0    19     1    12
  4.1702132708083548E+00 a       283     0    19     1    13
  6.7407186379236501E+00 a       284     0    19     1    14
 -3.1207162557292883E-01 a       285     0    19     1    15
  5.3190513262306425E+00 a       286     0    20     1     1
 -4.8843403484110901E+00 a       287     0    20     1     2
 -2.7223596593601884E-01 a       288     0    20     1     3
  1.1557742344542425E-01 a       289     0    20     1     4
  2.2795296616458067E+00 a       290     0    20     1     5
 -1.6681289634872374E+00 a       291     0    20     1     6
  3.1572304506279338E+00 a       292     0    20     1     7
  6.7538183076483571E-01 a       293     0    20     1     8
 -2.6922136572910929E+00 a       294     0    20     1     9
  6.1098637616534757E-01 a       295     0    20     1    10
 -3.0976579893411138E+00 a       296     0    20     1    11
 -4.6369238086553988E-01 a       297     0    20     1    12
 -6.0555218968394808E-01 a       298     0    20     1    13
 -1.3526143105567996E+00 a       299     0    20     1    14
  5.4823061998332214E+00 a       300     0    20     1    15
  6.2264961414959952E-01 a       301     0    21     1     1
  2.3797298187778398E-01 a       302     0    21     1     2
 -7.7597891245997794E-02 a       303     0    21     1     3
  1.4664042597190621E+00 a       304     0    21     1     4
  6.5364034505292201E-01 a       305     0    21     1     5
  4.1728464915485680E-02 a       306     0    21     1     6
  2.1604588767319199E-01 a       307     0    21     1     7
 -1.1508232815274062E+00 a       308     0    21     1     8
 -1.0825820463579272E-01 a       309     0    21     1     9
 -7.5736843320361347E-01 a       310     0    21     1    10
 -4.6765491200344822E-01 a       311     0    21     1    11
 -6.8675263744986093E-01 a       312     0    21     1    12
 -3.4132431406034764E+00 a       313     0    21     1    13
 -6.8716859634507166E-01 a       314     0    21     1    14
 -2.0321959518054519E-01 a       315     0    21     1    15
 -1.0888238979846940E+00 a       316     0    22     1     1
  7.8895713987263916E-01 a       317     0    22     1     2
  2.6423831699296157E-01 a       318     0    22     1     3
  2.4598598187325860E+00 a       319     0    22     1     4
 -3.5781127742501612E-01 a       320     0    22     1     5
 -5.1441894702756163E-01 a       321     0    22     1     6
 -1.3370520310438794E+00 a       322     0    22     1     7
 -1.3248097648325579E+00 a       323     0    22     1     8
 -2.4643781471426700E+00 a       324     0    22     1     9
  2.4390334311829204E-01 a       325     0    22     1    10
 -8.9915563032213686E-01 a       326     0    22     1    11
 -2.9555491059394980E+00 a       327     0    22     1    12
  2.1864032856904050E-01 a       328     0    22     1    13
 -1.1004775930752932E+00 a       329     0    22     1    14
  7.2469296424530372E-01 a       330     0    22     1    15
 -6.5208757919070515E-01 a       331     0    23     1     1
  3.0069675129274898E-01 a       332     0    23     1     2
 -1.6556022704198470E-01 a       333     0    23     1     3
  2.3797657898305977E+00 a       334     0    23     1     4
 -3.5863293562683927E+00 a       335     0    23     1     5
  1.3708812155249728E+00 a       336     0    23     1     6
 -1.6067222085351855E+00 a       337     0    23     1     7
  1.2047545773377778E-01 a       338     0    23     1     8
  6.8576623667789738E-01 a       339     0    23     1     9
  4.0114409295717052E-01 a       340     0    23     1    10
  7.3125346749372466E-01 a       341     0    23     1    11
 -1.5107046199382386E+00 a       342     0    23     1    12
  3.1912184254601792E+00 a       343     0    23     1    13
  4.7775908731047582E-02 a       344     0    23     1    14
  3.4131594835322721E-01 a       345     0    23     1    15
 -3.4653805058703518E-01 a       346     0    24     1     1
 -4.7399388692311056E-01 a       347     0    24     1     2
  1.8409007325457791E-02 a       348     0    24     1     3
  2.0309555288409531E-01 a       349     0    24     1     4
  2.5713409231669065E-01 a       350     0    24     1     5
  8.1930446325099618E-02 a       351     0    24     1     6
 -4.9463759388842961E-02 a       352     0    24     1     7
  1.6332244370525806E-01 a       353     0    24     1     8
 -1.3316579617179308E-01 a       354     0    24     1     9
  5.9995808296206182E-02 a       355     0    24     1    10
  1.0174400432683013E-01 a       356     0    24     1    11
  4.6767154180671783E-01 a       357     0    24     1    12
 -2.7399226104147828E-01 a       358     0    24     1    13
 -3.0043027094862740E-01 a       359     0    24     1    14
 -4.2594055409785864E-01 a       360     0    24     1    15
 -7.8520337178780486E-01 a       361     0    25     1     1
 -2.9791207651980534E-01 a       362     0    25     1     2
 -4.5498898334600656E-02 a       363     0    25     1     3
 -4.1345531318156209E-01 a       364     0    25     1     4
  4.4801323461715276E-01 a       365     0    25     1     5
  3.6300493422038234E-02 a       366     0    25     1     6
 -1.1843167877924718E+00 a       367     0    25     1     7
  3.4937898971899806E-01 a       368     0    25     1     8
 -8.4559407978444801E-01 a       369     0    25     1     9
 -2.6141070566874036E-01 a       370     0    25     1    10
  3.7856437610137877E-01 a       371     0    25     1    11
  1.3356035877358566E-01 a       372     0    25     1    12
  2.2166368705999284E-01 a       373     0    25     1    13
 -8.5030268802173115E-01 a       374     0    25     1    14
  9.0882508329856879E-02 a       375     0    25     1    15
 -1.1325058728476849E+00 a       376     0    26     1     1
  1.8429794154390227E+00 a       377     0    26     1     2
  9.4522212622763102E-01 a       378     0    26     1     3
 -7.4362233718652948E-01 a       379     0    26     1     4
 -2.2298394552871550E-01 a       380     0    26     1     5
  3.1027375110755955E+00 a       381     0    26     1     6
 -2.4284973699109957E+00 a       382     0    26     1     7
  1.3741763536228819E+00 a       383     0    26     1     8
  1.5403459994013498E+00 a       384     0    26     1     9
 -7.8276631045102962E-01 a       385     0    26     1    10
  3.8970103371608089E+00 a       386     0    26     1    11
 -5.7243876629318668E-01 a       387     0    26     1    12
  1.2066076399146166E+00 a       388     0    26     1    13
 -1.0409004941967921E+00 a       389     0    26     1    14
 -2.1973910211419359E+00 a       390     0    26     1    15
 -3.8189692136714626E-01 a       391     0    27     1     1
 -6.7891783992823362E-02 a       392     0    27     1     2
  3.7278316080862968E-02 a       393     0    27     1     3
 -5.0853776872329426E-01 a       394     0    27     1     4
 -4.5775352005790465E-01 a       395     0    27     1     5
  7.5464050011097891E-02 a       396     0    27     1     6
 -7.4659890909079027E-02 a       397     0    27     1     7
  5.4622536842259450E-01 a       398     0    27     1     8
  1.9669326847823657E-01 a       399     0    27     1     9
  3.7344244359140205E-01 a       400     0    27     1    10
  1.4447016397890741E-01 a       401     0    27     1    11
 -2.7333959484531678E-01 a       402     0    27     1    12
  1.3466571770767908E+00 a       403     0    27     1    13
  8.7729270487291877E-01 a       404     0    27     1    14
  3.6446800424506037E-01 a       405     0    27     1    15
  6.2058066979820037E-01 a       406     0    28     1     1
 -9.6755100883379394E-02 a       407     0    28     1     2
 -7.8654866876439661E-02 a       408     0    28     1     3
 -4.6632627062444709E-01 a       409     0    28     1     4
  5.8132454384080538E-02 a       410     0    28     1     5
 -6.7300699428143901E-02 a       411     0    28     1     6
 -1.5909087873390865E-01 a       412     0    28     1     7
  3.2247234667531988E-01 a       413     0    28     1     8
  1.3342357554780477E+00 a       414     0    28     1     9
  4.8747276823184603E-02 a       415     0    28     1    10
 -1.3387851701663137E-01 a       416     0    28     1    11
 -2.5332520474096276E-01 a       417     0    28     1    12
 -1.5230152233243635E-01 a       418     0    28     1    13
  4.0581254802633387E-01 a       419     0    28     1    14
 -2.0824162911936273E-01 a       420     0    28     1    15
  9.0311954962149665E-01 a       421     0    29     1     1
 -2.6571927919510099E+00 a       422     0    29     1     2
  3.1213027398333154E-01 a       423     0    29     1     3
 -2.9227026635175553E+00 a       424     0    29     1     4
 -2.2868083005757618E+00 a       425     0    29     1     5
  2.5573041700750053E-02 a       426     0    29     1     6
  3.0617907045732111E+00 a       427     0    29     1     7
 -6.2491255096896814E-01 a       428     0    29     1     8
 -1.7193220684083126E+00 a       429     0    29     1     9
 -3.4571231260475948E+00 a       430     0    29     1    10
 -3.6656798983141575E-01 a       431     0    29     1    11
  9.4604630577517412E-01 a       432     0    29     1    12
  1.1766104809361142E+00 a       433     0    29     1    13
  8.7145355162175497E-01 a       434     0    29     1    14
  6.9972785070764876E-01 a       435     0    29     1    15
  2.5349982772044333E-01 a       436     0    30     1     1
  1.2354499987444560E+00 a       437     0    30     1     2
 -4.3778112863632634E-01 a       438     0    30     1     3
  1.9422357511801236E+00 a       439     0    30     1     4
 -2.1690661550904493E+00 a       440     0    30     1     5
 -1.5183518952502303E-02 a       441     0    30     1     6
 -1.1311349707710971E+00 a       442     0    30     1     7
  4.2698231918884817E+00 a       443     0    30     1     8
  6.3487493882819279E-01 a       444     0    30     1     9
 -1.2703637990862664E+00 a       445     0    30     1    10
 -9.4168105864463436E-01 a       446     0    30     1    11
 -8.6545319375754093E-01 a       447     0    30     1    12
  3.4287609463366137E-01 a       448     0    30     1    13
 -1.5420772759925587E+00 a       449     0    30     1    14
 -1.9336076788097550E-01 a       450     0    30     1    15
  4.2167941279048007E+00 a       451     0    31     1     1
 -5.5590815222656431E-01 a       452     0    31     1     2
 -1.4040643835573088E+00 a       453     0    31     1     3
  1.9162965857026191E+00 a       454     0    31     1     4
  3.3929469713028202E+00 a       455     0    31     1     5
  1.2316065036938069E+00 a       456     0    31     1     6
  1.8939184886546019E+00 a       457     0    31     1     7
  4.2305887196892993E+00 a       458     0    31     1     8
  3.6331644673903112E+00 a       459     0    31     1     9
 -5.0429184557844486E+00 a       460     0    31     1    10
  2.6342355165898157E+00 a       461     0    31     1    11
  2.1131878528084140E+00 a       462     0    31     1    12
  1.3515243895294664E+00 a       463     0    31     1    13
  1.5190605786271774E+00 a       464     0    31     1    14
 -8.4239104613766969E-01 a       465     0    31     1    15
 -3.2235553608659271E+00 a       466     0    32     1     1
  1.5131963056322602E+00 a       467     0    32     1     2
 -7.6027237468645492E-01 a       468     0    32     1     3
  3.4523954685083658E-01 a       469     0    32     1     4
  1.5068133798993575E+00 a       470     0    32     1     5
  1.7206020867695366E+00 a       471     0    32     1     6
 -2.0131652678299972E+00 a       472     0    32     1     7
 -3.8609472271079599E+00 a       473     0    32     1     8
 -2.2917199484543254E+00 a       474     0    32     1     9
  1.8183454044553486E+00 a       475     0    32     1    10
  4.5428444614363372E-01 a       476     0    32     1    11
 -1.0731001480184785E-01 a       477     0    32     1    12
  3.4727167720489525E+00 a       478     0    32     1    13
 -5.2499354671912357E+00 a       479     0    32     1    14
  2.8555261275188628E+00 a       480     0    32     1    15
  1.0956687879371840E+00 a       481     0    33     1     1
  2.5524590063288916E-01 a       482     0    33     1     2
  4.7136870819517046E-01 a       483     0    33     1     3
  3.2247019636236529E+00 a       484     0    33     1     4
 -1.3097994506393706E+00 a       485     0    33     1     5
 -7.3451489894033216E-03 a       486     0    33     1     6
  1.1412887926144211E+00 a       487     0    33     1     7
 -1.5789558029613053E+00 a       488     0    33     1     8
  3.3463470751758700E-01 a       489     0    33     1     9
  1.4653103710445401E+00 a       490     0    33     1    10
 -5.7679484816329385E-01 a       491     0    33     1    11
  1.9076105008468685E+00 a       492     0    33     1    12
  2.0967448323128535E+00 a       493     0    33     1    13
 -1.2604407203253898E+00 a       494     0    33     1    14
  3.1609174201391355E-01 a       495     0    33     1    15
  5.1794374230336828E+00 a       496     0    34     1     1
  3.6203583342770522E+00 a       497     0    34     1     2
  4.3738894323688465E-01 a       498     0    34     1     3
  9.3049011327133935E-01 a       499     0    34     1     4
 -5.7835140121342565E+00 a       500     0    34     1     5
  1.1095080774466608E+00 a       501     0    34     1     6
 -3.5619180882646306E+00 a       502     0    34     1     7
 -4.2999334866133037E+00 a       503     0    34     1     8
 -1.6062558183501863E+00 a       504     0    34     1     9
 -6.9640963754789495E-02 a       505     0    34     1    10
 -1.3343199661889631E+00 a       506     0    34     1    11
 -1.1258337852515186E+00 a       507     0    34     1    12
 -4.7174438327884944E+00 a       508     0    34     1    13
 -4.9239064577107943E+00 a       509     0    34     1    14
  1.4869244164054769E+00 a       510     0    34     1    15
 -4.8004349781083999E-01 a       511     0    35     1     1
  2.8549411103668487E+00 a       512     0    35     1     2
 -2.7242822379904658E-01 a       513     0    35     1     3
 -3.9792011861838379E+00 a       514     0    35     1     4
 -1.5500260030854036E+00 a       515     0    35     1     5
  6.0135043875147487E-01 a       516     0    35     1     6
  7.6320557679002132E-01 a       517     0    35     1     7
  1.1574835606761043E+00 a       518     0    35     1     8
  1.0676848175321227E+00 a       519     0    35     1     9
  1.8432248128776834E+00 a       520     0    35     1    10
 -1.0176730482303138E+00 a       521     0    35     1    11
 -2.6464884434056999E+00 a       522     0    35     1    12
  6.9643268970879890E-01 a       523     0    35     1    13
  3.2772148577420803E+00 a       524     0    35     1    14
 -2.0206562046215772E+00 a       525     0    35     1    15
  1.5718079856439426E-02 a       526     0    36     1     1
 -2.1631732920183167E-01 a       527     0    36     1     2
  1.4825066905527920E-01 a       528     0    36     1     3
 -1.2377450899077547E+00 a       529     0    36     1     4
  1.6055521204039489E+00 a       530     0    36     1     5
  2.0323612909707819E-01 a       531     0    36     1     6
  2.5044058583489204E-01 a       532     0    36     1     7
 -2.2282066808986887E+00 a       533     0    36     1     8
 -4.4658504756358214E-01 a       534     0    36     1     9
  4.2061169794049058E-01 a       535     0    36     1    10
  8.0873722030838713E-01 a       536     0    36     1    11
 -4.8398342213124801E-01 a       537     0    36     1    12
 -2.8284336213069050E+00 a       538     0    36     1    13
  1.2511967586304129E+00 a       539     0    36     1    14
  7.7936497869745391E-01 a       540     0    36     1    15
 -1.8638925555097983E+00 a       541     0    37     1     1
  7.0378451715067392E-01 a       542     0    37     1     2
  2.7801633173562706E-01 a       543     0    37     1     3
 -1.1185350179543854E+00 a       544     0    37     1     4
  1.6379449244416824E+00 a       545     0    37     1     5
  1.1413821454828686E-01 a       546     0    37     1     6
  2.3160914953962748E+00 a       547     0    37     1     7
 -5.0017637406359827E-01 a       548     0    37     1     8
 -2.3173846197098920E+00 a       549     0    37     1     9
  1.9899643883370068E+00 a       550     0    37     1    10
 -1.2615421145658383E+00 a       551     0    37     1    11
 -2.4940080675706333E-01 a       552     0    37     1    12
  9.7335806358369381E-01 a       553     0    37     1    13
  2.9603397235205686E-01 a       554     0    37     1    14
  1.2572167034452022E-02 a       555     0    37     1    15
  1.4740456862016058E+00 a       556     0    38     1     1
 -2.5789826876743662E+00 a       557     0    38     1     2
  7.0812126362470962E-01 a       558     0    38     1     3
 -2.2831187398346988E+00 a       559     0    38     1     4
  2.5977733160740564E+00 a       560     0    38     1     5
 -1.4002585823757117E+00 a       561     0    38     1     6
 -6.2883274534626732E-01 a       562     0    38     1     7
  2.9000327079646049E-01 a       563     0    38     1     8
  2.8163538554060302E-01 a       564     0    38     1     9
 -7.5477445550189648E-01 a       565     0    38     1    10
  2.1072541748039937E+00 a       566     0    38     1    11
  8.0701112971295996E-01 a       567     0    38     1    12
 -1.2418212360307392E+00 a       568     0    38     1    13
  5.3745196574776131E+00 a       569     0    38     1    14
  2.4677455853101801E-01 a       570     0    38     1    15
 -1.0193973067950144E+00 a       571     0    39     1     1
 -6.1573307118916842E-01 a       572     0    39     1     2
 -2.5538373078481652E-01 a       573     0    39     1     3
 -1.2246850193372238E+00 a       574     0    39     1     4
  2.0764275422038976E+00 a       575     0    39     1     5
  3.3512878033415816E-01 a       576     0    39     1     6
 -3.9551610121054598E-01 a       577     0    39     1     7
 -2.8962910061275748E-01 a       578     0    39     1     8
 -1.3875938152726195E-02 a       579     0    39     1     9
 -8.2570713328059864E-01 a       580     0    39     1    10
  9.9730373448714293E-01 a       581     0    39     1    11
 -2.3027840685526395E+00 a       582     0    39     1    12
 -4.6743902950588490E-01 a       583     0    39     1    13
  1.0100692017226054E+00 a       584     0    39     1    14
  6.5313768139073802E-01 a       585     0    39     1    15
 -4.1452732354704445E+00 a       586     0    40     1     1
 -1.0471941258510653E+00 a       587     0    40     1     2
 -1.2066261182281689E-01 a       588     0    40     1     3
  1.9657314660480332E+00 a       589     0    40     1     4
  5.6546577769450812E-01 a       590     0    40     1     5
 -9.9427991287675088E-01 a       591     0    40     1     6
  8.8804070584985317E-01 a       592     0    40     1     7
  5.2505815786040011E-01 a       593     0    40     1     8
  1.4242709323114151E+00 a       594     0    40     1     9
  5.3243652107228527E-02 a       595     0    40     1    10
  8.8402666291092435E-01 a       596     0    40     1    11
 -3.2129190833823160E+00 a       597     0    40     1    12
 -1.3555032184819442E+00 a       598     0    40     1    13
  1.7570553832467382E+00 a       599     0    40     1    14
  2.3209824548120875E-01 a       600     0    40     1    15
 -4.6765120870368531E+00 a       601     0    41     1     1
  6.9108805508270157E+00 a       602     0    41     1     2
  7.9320609900728936E-02 a       603     0    41     1     3
 -2.1614288867964428E+00 a       604     0    41     1     4
  5.0295628655476587E-01 a       605     0    41     1     5
  2.9015805372345498E+00 a       606     0    41     1     6
  3.3331727650492599E-01 a       607     0    41     1     7
 -5.0695018064088639E-02 a       608     0    41     1     8
 -1.7990231439462059E+00 a       609     0    41     1     9
  7.3918620154840502E+00 a       610     0    41     1    10
 -1.7573883963587538E+00 a       611     0    41     1    11
  2.7001117725655917E+00 a       612     0    41     1    12
 -2.3167702342830272E+00 a       613     0    41     1    13
  9.1628361401209013E-01 a       614     0    41     1    14
  1.3871985040924428E+00 a       615     0    41     1    15
  6.2887062469748944E-01 a       616     0    42     1     1
 -3.9594395246122205E-01 a       617     0    42     1     2
  4.9480510594670024E-01 a       618     0    42     1     3
  5.4433919901086669E-01 a       619     0    42     1     4
  1.8408035307921526E+00 a       620     0    42     1     5
  1.3911584083078532E-01 a       621     0    42     1     6
  1.7784791411784386E+00 a       622     0    42     1     7
 -1.6013994908717217E+00 a       623     0    42     1     8
  1.1115836001833558E-01 a       624     0    42     1     9
  1.3221506983270290E+00 a       625     0    42     1    10
  6.8241079996237874E-01 a       626     0    42     1    11
 -3.1737957470053348E-02 a       627     0    42     1    12
  1.4146477605876360E+00 a       628     0    42     1    13
  1.9593220292554983E+00 a       629     0    42     1    14
 -4.8146166007995900E-01 a       630     0    42     1    15
 -9.5906999864906728E-01 a       631     0    43     1     1
 -6.9364538708532242E-01 a       632     0    43     1     2
  5.9505687338970881E-01 a       633     0    43     1     3
  8.0286145109049034E-01 a       634     0    43     1     4
  1.1366006047539170E+00 a       635     0    43     1     5
 -9.4506839062334591E-01 a       636     0    43     1     6
 -3.0202483743303081E+00 a       637     0    43     1     7
 -2.9128415603769326E+00 a       638     0    43     1     8
 -4.9818446886706763E-01 a       639     0    43     1     9
  8.0253575903427044E-01 a       640     0    43     1    10
 -1.9453792863130013E+00 a       641     0    43     1    11
 -5.0803762574408413E+00 a       642     0    43     1    12
  5.8893114056079217E+00 a       643     0    43     1    13
 -3.2985163418927717E+00 a       644     0    43     1    14
  2.0868466954559626E+00 a       645     0    43     1    15
  6.3533288614124190E+00 a       646     0    44     1     1
 -7.0849558235408754E+00 a       647     0    44     1     2
  6.6395698648175017E-01 a       648     0    44     1     3
 -2.4474927071282266E+00 a       649     0    44     1     4
  4.6990138414933158E+00 a       650     0    44     1     5
 -7.6745432047707840E-01 a       651     0    44     1     6
 -5.9641096549732771E+00 a       652     0    44     1     7
  5.0855514299020790E+00 a       653     0    44     1     8
  7.2315612586265638E+00 a       654     0    44     1     9
 -4.3732395651666600E+00 a       655     0    44     1    10
  1.4575220834056196E-01 a       656     0    44     1    11
 -2.3517521502553684E+00 a       657     0    44     1    12
 -1.6972905832996090E+00 a       658     0    44     1    13
 -7.2146662830214492E-01 a       659     0    44     1    14
 -3.8754387638628560E+00 a       660     0    44     1    15
 -2.5226257678599509E+00 a       661     0    45     1     1
 -1.9937175635368733E+00 a       662     0    45     1     2
 -5.4081010153021747E-01 a       663     0    45     1     3
 -5.1820839731117294E+00 a       664     0    45     1     4
  1.1621780041898759E+00 a       665     0    45     1     5
  6.3195108085089136E-01 a       666     0    45     1     6
 -9.9480776008760408E-01 a       667     0    45     1     7
 -2.7020921484588762E+00 a       668     0    45     1     8
 -1.2561369609709667E+00 a       669     0    45     1     9
 -1.6206900560988626E+00 a       670     0    45     1    10
  1.4554499566050803E+00 a       671     0    45     1    11
 -8.9313120763275555E-01 a       672     0    45     1    12
 -2.9888185242159735E+00 a       673     0    45     1    13
 -9.7690295585769704E-01 a       674     0    45     1    14
  1.0972805178119539E-01 a       675     0    45     1    15
 -6.3036316948768460E+00 a       676     0    46     1     1
 -1.0414009828683652E+00 a       677     0    46     1     2
 -3.2556198062549419E-01 a       678     0    46     1     3
  2.3330553532971305E+00 a       679     0    46     1     4
 -1.7739376930701489E+00 a       680     0    46     1     5
 -7.4528703574513522E-01 a       681     0    46     1     6
  2.7416143539898088E+00 a       682     0    46     1     7
  9.9027273917572445E-01 a       683     0    46     1     8
  7.6316364404022385E-01 a       684     0    46     1     9
  1.4545016337855314E+00 a       685     0    46     1    10
 -7.3719209185659595E-01 a       686     0    46     1    11
 -2.8378475765778188E-01 a       687     0    46     1    12
 -2.2238588236901240E+00 a       688     0    46     1    13
  2.1713994351556082E-01 a       689     0    46     1    14
 -1.3140802649738235E+00 a       690     0    46     1    15
  3.7501647391337156E-01 a       691     0    47     1     1
 -4.0403466643407890E+00 a       692     0    47     1     2
  2.6709302186227518E-01 a       693     0    47     1     3
  4.5624459279074454E+00 a       694     0    47     1     4
  2.8807384992596869E+00 a       695     0    47     1     5
 -3.2360109658830716E+00 a       696     0    47     1     6
 -5.2402158834904142E+00 a       697     0    47     1     7
 -6.6436978611392739E-01 a       698     0    47     1     8
 -4.8288128233159106E-01 a       699     0    47     1     9
 -4.2328354956062944E+00 a       700     0    47     1    10
  8.9453993084978889E-01 a       701     0    47     1    11
  2.9963042082142666E+00 a       702     0    47     1    12
  1.0145788769366517E+00 a       703     0    47     1    13
 -2.0840830963618235E+00 a       704     0    47     1    14
 -1.0488914809652918E+00 a       705     0    47     1    15
 -2.7348619163199034E-01 a       706     0    48     1     1
 -1.0494444305117884E-02 a       707     0    48     1     2
 -1.5831373390107040E-01 a       708     0    48     1     3
  5.5484595693282479E-01 a       709     0    48     1     4
 -1.5330579634424106E+00 a       710     0    48     1     5
 -2.6443097031368046E-01 a       711     0    48     1     6
 -1.4185887983448944E-01 a       712     0    48     1     7
  8.8341602061239033E-01 a       713     0    48     1     8
  4.7270404758692131E-01 a       714     0    48     1     9
 -5.0809274820692663E-01 a       715     0    48     1    10
 -7.2549811707124667E-01 a       716     0    48     1    11
 -1.3090523135370791E-01 a       717     0    48     1    12
  1.4637848984316171E+00 a       718     0    48     1    13
 -1.1852034123249355E+00 a       719     0    48     1    14
 -4.9110435455210200E-01 a       720     0    48     1    15
  2.1842212099595781E-01 a       721     0    49     1     1
 -7.8541630271357676E-01 a       722     0    49     1     2
  5.5888972323209374E-01 a       723     0    49     1     3
  1.3701197316857929E+00 a       724     0    49     1     4
 -2.2356539178140533E+00 a       725     0    49     1     5
 -1.2981238996900824E+00 a       726     0    49     1     6
 -1.0409684546099151E-02 a       727     0    49     1     7
 -8.3464097851954500E-01 a       728     0    49     1     8
  2.3185520451655450E+00 a       729     0    49     1     9
  2.8031774723199732E-01 a       730     0    49     1    10
  8.3001499509049070E-01 a       731     0    49     1    11
  7.4823809939752783E-01 a       732     0    49     1    12
 -5.0372394010098356E+00 a       733     0    49     1    13
 -1.1276059058772986E-01 a       734     0    49     1    14
 -1.3571001846647777E+00 a       735     0    49     1    15
 -1.7515365079776395E+00 a       736     0    50     1     1
  6.6992493786794896E+00 a       737     0    50     1     2
 -6.2981194308924038E-01 a       738     0    50     1     3
  1.3456146285120250E+00 a       739     0    50     1     4
 -7.9389627903251547E+00 a       740     0    50     1     5
 -1.0698123258623295E+00 a       741     0    50     1     6
  9.5708816420495868E+00 a       742     0    50     1     7
 -1.9091388922992591E+00 a       743     0    50     1     8
 -3.9116991477809887E-01 a       744     0    50     1     9
 -4.4340783113299570E-04 a       745     0    50     1    10
 -3.1679942554551710E+00 a       746     0    50     1    11
 -1.9971801828671467E+00 a       747     0    50     1    12
 -1.3937172681203727E+00 a       748     0    50     1    13
  7.6343235949880324E+00 a       749     0    50     1    14
  2.9074830147189268E-01 a       750     0    50     1    15
  2.2050168284351015E+00 a       751     0    51     1     1
  9.7929338263837928E-01 a       752     0    51     1     2
  3.4453652822102265E-01 a       753     0    51     1     3
  2.1446418351075867E+00 a       754     0    51     1     4
 -1.0787712023625713E+00 a       755     0    51     1     5
 -1.0614689393073473E+00 a       756     0    51     1     6
 -3.2922704801954833E-02 a       757     0    51     1     7
  1.3939915071288866E+00 a       758     0    51     1     8
  3.9679297517690065E-01 a       759     0    51     1     9
  7.6072767048760914E-01 a       760     0    51     1    10
 -1.4812578702151167E+00 a       761     0    51     1    11
  2.5421814760852994E+00 a       762     0    51     1    12
 -3.4937979836531863E-01 a       763     0    51     1    13
  6.6653359795120090E-02 a       764     0    51     1    14
 -9.6116101454679659E-01 a       765     0    51     1    15
  2.5670982533431070E+00 a       766     0    52     1     1
 -4.5497261505620390E-02 a       767     0    52     1     2
  3.1162431970545368E-01 a       768     0    52     1     3
 -3.7886258752893465E+00 a       769     0    52     1     4
  1.9351564342681633E+00 a       770     0    52     1     5
  7.1179890868477647E-01 a       771     0    52     1     6
  6.0692899742914730E-01 a       772     0    52     1     7
 -1.4660452659071685E-01 a       773     0    52     1     8
 -1.6048694913928783E+00 a       774     0    52     1     9
  1.5583815902895512E-01 a       775     0    52     1    10
  3.7689329367295810E-01 a       776     0    52     1    11
  4.3736441469395153E+00 a       777     0    52     1    12
  2.7543529092261285E+00 a       778     0    52     1    13
  2.8336884303587332E-02 a       779     0    52     1    14
 -9.2968486205899847E-01 a       780     0    52     1    15
 -5.4950710447108824E+00 a       781     0    53     1     1
 -6.6406492049208565E-01 a       782     0    53     1     2
 -5.3432982916551297E-01 a       783     0    53     1     3
  2.2464520790319300E+00 a       784     0    53     1     4
 -1.3718229538717379E+00 a       785     0    53     1     5
 -4.6345152429866432E-01 a       786     0    53     1     6
  1.7999121658622930E+00 a       787     0    53     1     7
 -2.5355224697328477E-01 a       788     0    53     1     8
 -4.7655084758579997E+00 a       789     0    53     1     9
 -1.7798834188628279E+00 a       790     0    53     1    10
 -2.0455069835102746E+00 a       791     0    53     1    11
  1.8132868648986509E+00 a       792     0    53     1    12
 -6.6004093485041759E-01 a       793     0    53     1    13
  1.0504282550719410E+00 a       794     0    53     1    14
  3.5545091735916907E+00 a       795     0    53     1    15
 -1.2807720764767977E-01 a       796     0    54     1     1
  9.0150512094546748E-02 a       797     0    54     1     2
 -2.1251120405718471E-01 a       798     0    54     1     3
 -1.8652864182013495E+00 a       799     0    54     1     4
 -3.0308157339410513E-01 a       800     0    54     1     5
  1.1007608288995650E-01 a       801     0    54     1     6
 -2.6214594661037283E-01 a       802     0    54     1     7
 -2.2997653525108536E-01 a       803     0    54     1     8
  1.8720938952553137E-01 a       804     0    54     1     9
 -6.3847363100355115E-01 a       805     0    54     1    10
 -4.3324614310748583E-01 a       806     0    54     1    11
  1.9153995333217528E+00 a       807     0    54     1    12
  1.7672996963558074E+00 a       808     0    54     1    13
 -1.5692817488331439E+00 a       809     0    54     1    14
 -3.6018565738626018E-01 a       810     0    54     1    15
  9.7181553062324555E-01 a       811     0    55     1     1
  1.6656629885534113E+00 a       812     0    55     1     2
  4.1295482721075677E-01 a       813     0    55     1     3
  3.4536706618490887E+00 a       814     0    55     1     4
 -3.0999410914706109E+00 a       815     0    55     1     5
 -1.1514424352312318E+00 a       816     0    55     1     6
  2.7908952423613509E+00 a       817     0    55     1     7
  1.4984010907985812E+00 a       818     0    55     1     8
  1.7833228437359093E-02 a       819     0    55     1     9
  2.0560023951531732E+00 a       820     0    55     1    10
 -1.1877495763840245E+00 a       821     0    55     1    11
  1.2300262581478945E-01 a       822     0    55     1    12
 -2.0417554604649633E+00 a       823     0    55     1    13
  4.4865819744239586E+00 a       824     0    55     1    14
  5.1657229515030034E-01 a       825     0    55     1    15
  6.7776111458643769E+00 a       826     0    56     1     1
 -4.0741410211032463E+00 a       827     0    56     1     2
 -5.4644073144955774E-01 a       828     0    56     1     3
 -8.4482544407866456E-02 a       829     0    56     1     4
 -7.2946795346501569E-01 a       830     0    56     1     5
 -4.4114686521104245E+00 a       831     0    56     1     6
  1.3478692982599525E+00 a       832     0    56     1     7
  2.7206631920323079E+00 a       833     0    56     1     8
  5.0916776160800004E-01 a       834     0    56     1     9
 -1.0801401662001398E+00 a       835     0    56     1    10
  2.5402770123272522E+00 a       836     0    56     1    11
  1.4565511331020382E+00 a       837     0    56     1    12
  9.3227667265934566E-01 a       838     0    56     1    13
  2.4021568476159705E+00 a       839     0    56     1    14
 -4.7408184738302364E+00 a       840     0    56     1    15
  1.5157569994746791E+00 a       841     0    57     1     1
  5.4053163046481534E-01 a       842     0    57     1     2
  1.7183546355107704E-01 a       843     0    57     1     3
  2.6371499416315167E+00 a       844     0    57     1     4
 -6.8118378727812634E-01 a       845     0    57     1     5
 -7.3929330043806085E-01 a       846     0    57     1     6
  1.2712977737586992E-01 a       847     0    57     1     7
  1.0986583504756120E+00 a       848     0    57     1     8
 -1.9027007205388921E-01 a       849     0    57     1     9
  4.0616138846182076E-01 a       850     0    57     1    10
 -5.0507491095864143E-01 a       851     0    57     1    11
 -7.5312863180371459E-01 a       852     0    57     1    12
 -4.2411289264037952E+00 a       853     0    57     1    13
  1.4529308133665781E+00 a       854     0    57     1    14
  8.8925436530003987E-01 a       855     0    57     1    15
 -2.2268886669257473E+00 a       856     0    58     1     1
  1.5538244668854377E+00 a       857     0    58     1     2
 -2.3000069181720442E-01 a       858     0    58     1     3
 -4.9625831160724632E+00 a       859     0    58     1     4
  1.3605160622750118E-01 a       860     0    58     1     5
  1.0707311571028959E+00 a       861     0    58     1     6
 -3.4857555079875464E+00 a       862     0    58     1     7
  3.1667225660663392E-02 a       863     0    58     1     8
 -1.8710299170489677E+00 a       864     0    58     1     9
 -1.6370178707246947E+00 a       865     0    58     1    10
  2.2121163654282738E+00 a       866     0    58     1    11
  4.6780166192589663E+00 a       867     0    58     1    12
 -1.4039786583215941E+00 a       868     0    58     1    13
 -4.8643869822057768E+00 a       869     0    58     1    14
 -9.3671607117122990E-01 a       870     0    58     1    15
  1.6130812356361139E+00 a       871     0    59     1     1
  9.5062781154142717E-01 a       872     0    59     1     2
  1.9776441381625761E-02 a       873     0    59     1     3
  9.1021444018415576E-01 a       874     0    59     1     4
 -1.7738166138173892E+00 a       875     0    59     1     5
  1.8734000955960926E+00 a       876     0    59     1     6
  1.2534424907577182E+00 a       877     0    59     1     7
  4.1440041032329911E-01 a       878     0    59     1     8
  2.2154641520424025E+00 a       879     0    59     1     9
  1.3807490477873585E+00 a       880     0    59     1    10
  7.0990371377579464E-01 a       881     0    59     1    11
 -1.5557052114221803E+00 a       882     0    59     1    12
  9.9768970405247326E-01 a       883     0    59     1    13
 -2.1111787295725311E+00 a       884     0    59     1    14
  2.2174978044241205E+00 a       885     0    59     1    15
 -1.0956811161302416E-01 a       886     0    60     1     1
 -1.2948390861106021E-01 a       887     0    60     1     2
  6.4400729669919124E-02 a       888     0    60     1     3
  3.8055680259864461E-01 a       889     0    60     1     4
  7.9115462682490356E-01 a       890     0    60     1     5
  4.9171526121983652E-02 a       891     0    60     1     6
 -5.7740975703109501E-02 a       892     0    60     1     7
  1.7260779468740720E-01 a       893     0    60     1     8
 -2.7825809231945564E-01 a       894     0    60     1     9
  2.7158582551489263E-01 a       895     0    60     1    10
  2.4785391828402245E-01 a       896     0    60     1    11
  4.7028995248230974E-02 a       897     0    60     1    12
 -8.3349946978962508E-01 a       898     0    60     1    13
  5.2616114257852276E-01 a       899     0    60     1    14
 -6.0040502497937201E-02 a       900     0    60     1    15
 -1.8833972624164169E-01 a       901     0    61     1     1
 -4.6801079447330080E-01 a       902     0    61     1     2
 -5.5749266778119466E-01 a       903     0    61     1     3
 -2.0696050804457036E+00 a       904     0    61     1     4
  1.8676535392590197E+00 a       905     0    61     1     5
  1.0260462540970430E+00 a       906     0    61     1     6
 -1.8119603019961337E+00 a       907     0    61     1     7
  7.7561673340064086E-01 a       908     0    61     1     8
 -1.4733729558989841E+00 a       909     0    61     1     9
 -1.3711531861854456E+00 a       910     0    61     1    10
  5.4283241503039692E-01 a       911     0    61     1    11
  5.0415259764776055E-01 a       912     0    61     1    12
  2.9907143348307170E+00 a       913     0    61     1    13
 -1.0682005011031186E+00 a       914     0    61     1    14
  5.3971778704437989E-01 a       915     0    61     1    15
 -2.2846851064995253E+00 a       916     0    62     1     1
  1.2150223621373795E+00 a       917     0    62     1     2
 -4.6371289911396890E-01 a       918     0    62     1     3
  1.3679286119115124E+00 a       919     0    62     1     4
  1.0282990610812750E+00 a       920     0    62     1     5
 -5.6559628121176586E-01 a       921     0    62     1     6
 -4.3151928776528869E+00 a       922     0    62     1     7
 -6.3252360962932541E-01 a       923     0    62     1     8
 -7.8048064398878791E-01 a       924     0    62     1     9
  1.6518619427027883E+00 a       925     0    62     1    10
 -1.5152611930904136E+00 a       926     0    62     1    11
 -1.1592029372910040E+00 a       927     0    62     1    12
 -5.9175227203063794E-03 a       928     0    62     1    13
 -2.3137319647384786E+00 a       929     0    62     1    14
 -3.4673084567873685E-01 a       930     0    62     1    15
 -3.6947804470240936E-01 a       931     0    63     1     1
  2.4120639504791763E-01 a       932     0    63     1     2
 -3.3262398773656034E-02 a       933     0    63     1     3
 -1.7671913224504956E-01 a       934     0    63     1     4
  2.3648572178649171E-01 a       935     0    63     1     5
  2.5194734061127072E-01 a       936     0    63     1     6
 -3.0090980701804682E-01 a       937     0    63     1     7
  6.6292648375347518E-01 a       938     0    63     1     8
 -1.5230247308078368E-01 a       939     0    63     1     9
 -9.7299680172783190E-02 a       940     0    63     1    10
  4.6224962336666353E-01 a       941     0    63     1    11
 -1.4429022211366938E-01 a       942     0    63     1    12
  2.2890366972254896E+00 a       943     0    63     1    13
 -6.1208357334919350E-01 a       944     0    63     1    14
 -4.1252562087159619E-02 a       945     0    63     1    15
 -7.5021580671762211E-01 a       946     0    64     1     1
  2.7896925210971213E-01 a       947     0    64     1     2
 -7.1940308987859761E-02 a       948     0    64     1     3
  1.2569613511119606E+00 a       949     0    64     1     4
 -5.2103018444884119E-01 a       950     0    64     1     5
  1.4999469304742205E-01 a       951     0    64     1     6
 -8.4813605775075174E-01 a       952     0    64     1     7
  8.8329484781263490E-01 a       953     0    64     1     8
 -4.6230275851954916E-01 a       954     0    64     1     9
 -2.1625521009999607E-01 a       955     0    64     1    10
  7.3824831454207440E-01 a       956     0    64     1    11
  4.3515596567650822E-01 a       957     0    64     1    12
 -8.9680532338200858E-01 a       958     0    64     1    13
 -1.0822127478182249E+00 a       959     0    64     1    14
  6.1758642152666565E-01 a       960     0    64     1    15
  8.6014296410682807E+00 a       961     0    65     1     1
 -2.3803065196203961E+00 a       962     0    65     1     2
  1.7727078547776468E-01 a       963     0    65     1     3
  1.1673244433002363E+00 a       964     0    65     1     4
  5.4564014467692044E+00 a       965     0    65     1     5
 -3.9343017224503432E+00 a       966     0    65     1     6
  2.5060435709977158E-01 a       967     0    65     1     7
  2.5517282647059769E+00 a       968     0    65     1     8
  1.9585842426044278E-01 a       969     0    65     1     9
 -6.5510332674669369E-01 a       970     0    65     1    10
 -3.8779237362845098E-01 a       971     0    65     1    11
 -1.0005775213614712E+00 a       972     0    65     1    12
 -5.0179044891510722E+00 a       973     0    65     1    13
 -2.1514109430695001E+00 a       974     0    65     1    14
 -1.1617837313589308E+00 a       975     0    65     1    15
  7.1214787757491249E-01 a       976     0    66     1     1
  1.4254178552688986E-02 a       977     0    66     1     2
  2.5565429634408613E-02 a       978     0    66     1     3
  5.0081057005214902E-01 a       979     0    66     1     4
 -4.8625751774189618E-01 a       980     0    66     1     5
 -1.3079610459874461E-01 a       981     0    66     1     6
  1.6536549586427413E-01 a       982     0    66     1     7
 -5.4041099967326778E-01 a       983     0    66     1     8
 -3.9103256859113297E-02 a       984     0    66     1     9
  1.5163918850092101E-01 a       985     0    66     1    10
 -7.6874698229474958E-02 a       986     0    66     1    11
 -1.4333006057719599E+00 a       987     0    66     1    12
 -1.8815267969436338E+00 a       988     0    66     1    13
  1.0982571099365230E+00 a       989     0    66     1    14
  3.8920456697009975E-01 a       990     0    66     1    15
  3.3597938982424791E-01 a       991     0    67     1     1
  3.8362003962646563E-01 a       992     0    67     1     2
  1.0202246874423050E-03 a       993     0    67     1     3
  7.6178983230624484E-02 a       994     0    67     1     4
 -2.2216990898992292E-01 a       995     0    67     1     5
  2.1249045685197407E-01 a       996     0    67     1     6
  7.8820194902680274E-01 a       997     0    67     1     7
 -1.3113070197552044E+00 a       998     0    67     1     8
  1.1636168725399971E+00 a       999     0    67     1     9
 -1.5627025163870645E-01 a      1000     0    67     1    10
 -2.0490270523771620E-01 a      1001     0    67     1    11
 -7.4750001850195269E-01 a      1002     0    67     1    12
 -5.7655201649936115E-02 a      1003     0    67     1    13
 -3.7677648216377946E-01 a      1004     0    67     1    14
 -2.8083475259327428E-01 a      1005     0    67     1    15
 -9.0619802349022627E-01 a      1006     0    68     1     1
 -9.2415112715540015E-01 a      1007     0    68     1     2
 -2.5704515125957200E-02 a      1008     0    68     1     3
 -1.5836839821238928E+00 a      1009     0    68     1     4
  7.8075455930593407E-01 a      1010     0    68     1     5
  6.3539654925146305E-01 a      1011     0    68     1     6
 -3.1215237332773038E-01 a      1012     0    68     1     7
  1.5574290187525994E-01 a      1013     0    68     1     8
 -4.2943017249097670E-01 a      1014     0    68     1     9
  2.4666165598077039E-01 a      1015     0    68     1    10
 -7.4848586939618628E-02 a      1016     0    68     1    11
  1.2357668881490071E+00 a      1017     0    68     1    12
  1.2230019383766098E+00 a      1018     0    68     1    13
 -1.6253179865202696E+00 a      1019     0    68     1    14
  2.3436831184745754E+00 a      1020     0    68     1    15
 -2.8207565992847056E-01 a      1021     0    69     1     1
  9.4547066066465901E-02 a      1022     0    69     1     2
  6.9017387745203187E-03 a      1023     0    69     1     3
  1.0797906328849860E-02 a      1024     0    69     1     4
  8.2482723075199182E-01 a      1025     0    69     1     5
  8.5407841334577822E-02 a      1026     0    69     1     6
 -1.7231835826369602E-02 a      1027     0    69     1     7
  8.3923643155992211E-02 a      1028     0    69     1     8
 -1.9762758214842921E-01 a      1029     0    69     1     9
 -2.5991525177611496E-01 a      1030     0    69     1    10
  3.3032794090637185E-01 a      1031     0    69     1    11
  4.7385498587432445E-01 a      1032     0    69     1    12
  8.5530575336433956E-01 a      1033     0    69     1    13
 -6.5382740298852304E-01 a      1034     0    69     1    14
 -3.2477293823685821E-01 a      1035     0    69     1    15
 -2.3421300189822070E+00 a      1036     0    70     1     1
  1.6980255504557445E-01 a      1037     0    70     1     2
  4.0276789477641559E-02 a      1038     0    70     1     3
  5.4735345514544032E-01 a      1039     0    70     1     4
 -3.3038132030673367E-01 a      1040     0    70     1     5
 -1.0986514719515279E-01 a      1041     0    70     1     6
 -1.2160526018128988E+00 a      1042     0    70     1     7
  2.8078447473842399E-01 a      1043     0    70     1     8
 -1.8242695706757428E+00 a      1044     0    70     1     9
  2.5962225218994089E-01 a      1045     0    70     1    10
  6.2398042247698926E-01 a      1046     0    70     1    11
  1.3793172541395560E+00 a      1047     0    70     1    12
 -1.1008197682602250E+00 a      1048     0    70     1    13
 -1.9329462413383527E+00 a      1049     0    70     1    14
  1.9086220870772203E-01 a      1050     0    70     1    15
 -7.1148868557732403E-01 a      1051     0    71     1     1
 -5.1069905588483688E-01 a      1052     0    71     1     2
  1.6950790664911588E-02 a      1053     0    71     1     3
 -3.1901486555758169E+00 a      1054     0    71     1     4
  2.0269034351242752E+00 a      1055     0    71     1     5
 -9.3250643671483102E-01 a      1056     0    71     1     6
  6.8707247523082693E-01 a      1057     0    71     1     7
 -7.0251379247085399E-01 a      1058     0    71     1     8
 -1.1771382530273289E+00 a      1059     0    71     1     9
 -3.7768407334343201E-01 a      1060     0    71     1    10
  1.3465498058278853E-02 a      1061     0    71     1    11
  1.3825354939189907E+00 a      1062     0    71     1    12
 -1.9851713637492667E+00 a      1063     0    71     1    13
  1.4208552411338529E+00 a      1064     0    71     1    14
 -2.2506514294109023E+00 a      1065     0    71     1    15
  1.2070827332625365E-01 a      1066     0    72     1     1
  3.1221999772394832E-01 a      1067     0    72     1     2
 -2.0113111668753177E-02 a      1068     0    72     1     3
 -2.3531382982670684E-01 a      1069     0    72     1     4
 -3.1985210021129429E-01 a      1070     0    72     1     5
 -4.3237000870115852E-02 a      1071     0    72     1     6
  1.0758990957278942E-01 a      1072     0    72     1     7
 -6.8318568895611734E-02 a      1073     0    72     1     8
  1.4768842254306644E-01 a      1074     0    72     1     9
 -1.3629688237237300E-01 a      1075     0    72     1    10
 -7.2318981763766832E-02 a      1076     0    72     1    11
 -6.9484373451732417E-02 a      1077     0    72     1    12
  6.0694254876188369E-01 a      1078     0    72     1    13
 -1.6009837011635605E-01 a      1079     0    72     1    14
  2.1523114568778381E-01 a      1080     0    72     1    15
  1.8495497954897641E-01 a      1081     0    73     1     1
  3.8124208845280511E-01 a      1082     0    73     1     2
  1.6168513142548466E-01 a      1083     0    73     1     3
  6.6481740640953735E-01 a      1084     0    73     1     4
 -8.8214454517925500E-01 a      1085     0    73     1     5
 -2.5935836118043537E-01 a      1086     0    73     1     6
  8.4234023582789153E-01 a      1087     0    73     1     7
 -1.2356868909022371E-01 a      1088     0    73     1     8
  5.6750677550138073E-01 a      1089     0    73     1     9
  4.4718377281284877E-01 a      1090     0    73     1    10
 -2.4221684564176912E-01 a      1091     0    73     1    11
  6.1068750282148906E-02 a      1092     0    73     1    12
 -7.9815685042721363E-01 a      1093     0    73     1    13
  3.8600219196656171E-01 a      1094     0    73     1    14
 -1.8468304711855310E-01 a      1095     0    73     1    15
 -1.8213901876482935E-01 a      1096     0    74     1     1
  5.5773395329931121E-02 a      1097     0    74     1     2
  9.8469668336214570E-03 a      1098     0    74     1     3
  1.5600168195533901E-01 a      1099     0    74     1     4
 -4.2772073763909790E-01 a      1100     0    74     1     5
  1.2184410471996310E-01 a      1101     0    74     1     6
  8.4913662834753656E-01 a      1102     0    74     1     7
 -2.9992920128960948E-01 a      1103     0    74     1     8
  2.1359549703912603E-01 a      1104     0    74     1     9
 -2.3438509291731874E-01 a      1105     0    74     1    10
  1.9132715304142153E-01 a      1106     0    74     1    11
  2.4933257804385436E-01 a      1107     0    74     1    12
 -1.7313768500037485E-01 a      1108     0    74     1    13
  1.0112032306049723E+00 a      1109     0    74     1    14
 -8.9512317671483169E-02 a      1110     0    74     1    15
  1.1346796674993952E-01 a      1111     0    75     1     1
 -6.3275930633798452E-02 a      1112     0    75     1     2
  9.1341707785339496E-03 a      1113     0    75     1     3
 -2.8623243055532188E-01 a      1114     0    75     1     4
 -4.7155169167270805E-01 a      1115     0    75     1     5
 -5.1901371927071997E-02 a      1116     0    75     1     6
 -9.4773382786391303E-02 a      1117     0    75     1     7
 -2.5951245723908462E-01 a      1118     0    75     1     8
  6.6392383608322822E-02 a      1119     0    75     1     9
  1.0665132578558066E-01 a      1120     0    75     1    10
 -1.0483416397284145E-01 a      1121     0    75     1    11
  4.4678728789303256E-02 a      1122     0    75     1    12
 -2.5007748644847833E-01 a      1123     0    75     1    13
  2.6509312443602617E-01 a      1124     0    75     1    14
  1.6428769732113513E-01 a      1125     0    75     1    15
  2.7387409604462348E-01 a      1126     0    76     1     1
 -1.1891272781695994E-01 a      1127     0    76     1     2
  2.6432445197257577E-02 a      1128     0    76     1     3
  7.6135072161977888E-02 a      1129     0    76     1     4
  1.1774751169054044E-01 a      1130     0    76     1     5
 -5.1856369615783493E-02 a      1131     0    76     1     6
  7.1196634558817262E-01 a      1132     0    76     1     7
 -4.7668414945360377E-01 a      1133     0    76     1     8
  6.4717669824975321E-01 a      1134     0    76     1     9
  2.4778210221364463E-01 a      1135     0    76     1    10
 -1.3751372886007190E-01 a      1136     0    76     1    11
  1.0317852827267324E-01 a      1137     0    76     1    12
 -2.6836175801634476E-01 a      1138     0    76     1    13
  4.3662224370023484E-01 a      1139     0    76     1    14
 -2.0767351293594175E-01 a      1140     0    76     1    15
  7.0166543786525259E-01 b      1141     1     1
 -6.6672873912249742E-01 b      1142     1     2
  3.6115178713197460E-01 b      1143     1     3
 -2.0768844300976443E+00 b      1144     1     4
  3.7592531234915300E-01 b      1145     1     5
  4.4767469234271617E-01 b      1146     1     6
  5.2996666678399873E-01 b      1147     1     7
 -6.2515948644095243E-01 b      1148     1     8
  8.3591163791757217E-01 b      1149     1     9
  6.6799298892016290E-01 b      1150     1    10
  4.3228517749724649E-01 b      1151     1    11
 -2.1482094143636915E-01 b      1152     1    12
 -6.6446917030713559E-01 b      1153     1    13
  1.5497275242581621E+00 b      1154     1    14
  6.4831116081136009E-02 b      1155     1    15
  1.6410731494951195E-01 a      1156     1     1     2     1
  5.9822995274645685E-01 a      1157     1     1     2     2
 -6.2855190618357670E-01 a      1158     1     1     2     3
  7.6510445605502397E-01 a      1159     1     1     2     4
 -8.3557252343618016E-01 a      1160     1     1     2     5
 -6.5260671788565783E-01 a      1161     1     1     2     6
 -3.6687004374578569E-01 a      1162     1     1     2     7
 -9.9366929762405010E-01 a      1163     1     1     2     8
  2.0513185042523185E-01 a      1164     1     1     2     9
  1.8285507714803311E+00 a      1165     1     1     2    10
 -9.9164395570932129E-01 a      1166     1     1     2    11
 -2.4373279300083758E-01 a      1167     1     1     2    12
 -1.2148057253148119E+00 a      1168     1     1     2    13
  7.2779419308047799E-01 a      1169     1     1     2    14
 -5.4563108240505054E-01 a      1170     1     1     2    15
  9.9691425757150354E-01 a      1171     1     2     2     1
  5.9877390096647698E-01 a      1172     1     2     2     2
  4.3400668119475205E-01 a      1173     1     2     2     3
  1.4502597178739407E+00 a      1174     1     2     2     4
 -1.9051231561206961E-02 a      1175     1     2     2     5
 -5.3532731748910413E-02 a      1176     1     2     2     6
 -1.7143087657684672E+00 a      1177     1     2     2     7
 -5.4861715734182370E-01 a      1178     1     2     2     8
  9.0598681237583620E-02 a      1179     1     2     2     9
 -1.7159849080470191E+00 a      1180     1     2     2    10
  2.8232569765460154E+00 a      1181     1     2     2    11
 -1.1261801434285206E+00 a      1182     1     2     2    12
  8.8164527796250836E-01 a      1183     1     2     2    13
 -1.9035629024267617E+00 a      1184     1     2     2    14
 -2.9894669964685150E+00 a      1185     1     2     2    15
 -4.2219807118734259E-01 a      1186     1     3     2     1
 -7.8402902287038145E-01 a      1187     1     3     2     2
 -1.8927977406086609E+00 a      1188     1     3     2     3
  6.6111313522791060E-01 a      1189     1     3     2     4
  4.3197831650318369E-01 a      1190     1     3     2     5
  6.9616700424035893E-01 a      1191     1     3     2     6
  5.6459154263047084E-01 a      1192     1     3     2     7
  1.7828328086208174E+00 a      1193     1     3     2     8
 -2.8533179828978108E+00 a      1194     1     3     2     9
 -2.5976094784395487E+00 a      1195     1     3     2    10
  1.5329942147649620E+00 a      1196     1     3     2    11
 -7.6751199134870585E-01 a      1197     1     3     2    12
  2.4600777799161300E+00 a      1198     1     3     2    13
  5.4717997716456246E-01 a      1199     1     3     2    14
  4.6247544377495703E-01 a      1200     1     3     2    15
  4.9393156738974729E-02 a      1201     1     4     2     1
 -7.5882483840634052E-01 a      1202     1     4     2     2
  8.8160987312706118E-01 a      1203     1     4     2     3
 -3.2614892872569601E-01 a      1204     1     4     2     4
 -6.5155471603981341E-01 a      1205     1     4     2     5
 -6.9623834561486042E-01 a      1206     1     4     2     6
  3.6774400387709799E-01 a      1207     1     4     2     7
  1.3562973577386030E+00 a      1208     1     4     2     8
 -9.9354315410759175E-02 a      1209     1     4     2     9
  1.2209403458522571E-01 a      1210     1     4     2    10
  5.7152824823224979E-01 a      1211     1     4     2    11
  6.0959065197193607E-01 a      1212     1     4     2    12
 -5.1376738456044480E-01 a      1213     1     4     2    13
 -8.1349589374097875E-01 a      1214     1     4     2    14
  1.1842318746809612E+00 a      1215     1     4     2    15
  5.1470160834423195E-01 a      1216     1     5     2     1
 -1.0413327317564021E+00 a      1217     1     5     2     2
  8.1318047533024837E-02 a      1218     1     5     2     3
 -7.5133896072018946E-01 a      1219     1     5     2     4
  2.7626001210923706E-01 a      1220     1     5     2     5
  8.9544607008940358E-01 a      1221     1     5     2     6
 -9.1631577138996356E-01 a      1222     1     5     2     7
 -5.2337948083234442E-01 a      1223     1     5     2     8
  9.3268132231256140E-01 a      1224     1     5     2     9
 -1.3939137831871515E+00 a      1225     1     5     2    10
  4.7529868471313519E-01 a      1226     1     5     2    11
  5.1847409513505438E-01 a      1227     1     5     2    12
 -1.1741785202787731E+00 a      1228     1     5     2    13
  5.8880018190699102E-01 a      1229     1     5     2    14
 -8.8217855318828620E-01 a      1230     1     5     2    15
  3.3181043672774913E-01 a      1231     1     6     2     1
 -1.2755891548209408E-01 a      1232     1     6     2     2
 -4.8152485269004763E-01 a      1233     1     6     2     3
  1.8630323958021942E+00 a      1234     1     6     2     4
 -1.2023562768282573E-02 a      1235     1     6     2     5
  4.3521512208854940E-01 a      1236     1     6     2     6
 -1.2740056295236846E+00 a      1237     1     6     2     7
  2.0214351372678821E-01 a      1238     1     6     2     8
 -1.9693272638582499E-01 a      1239     1     6     2     9
  2.3243418903124677E-01 a      1240     1     6     2    10
 -1.4312099762566850E+00 a      1241     1     6     2    11
 -2.4831669169518187E+00 a      1242     1     6     2    12
  1.2730908162469130E+00 a      1243     1     6     2    13
  1.7912743403749889E+00 a      1244     1     6     2    14
  1.5602473613045316E+00 a      1245     1     6     2    15
  1.7015652507498353E+00 a      1246     1     7     2     1
  3.2053160015308674E-01 a      1247     1     7     2     2
 -3.1275778930252418E-01 a      1248     1     7     2     3
 -6.2230477138421580E-01 a      1249     1     7     2     4
  3.0306599268958478E-01 a      1250     1     7     2     5
 -3.5570714493279648E-01 a      1251     1     7     2     6
  7.7211824882053859E-02 a      1252     1     7     2     7
  5.2142297592305778E-02 a      1253     1     7     2     8
 -4.7805588578767287E-02 a      1254     1     7     2     9
  5.7918816576603671E-01 a      1255     1     7     2    10
 -1.2396099314281903E+00 a      1256     1     7     2    11
  1.6473494872657055E-01 a      1257     1     7     2    12
  3.0781989264315424E-01 a      1258     1     7     2    13
  4.7798773087656093E-01 a      1259     1     7     2    14
  1.3671754079660881E+00 a      1260     1     7     2    15
  2.0027868302918899E+00 a      1261     1     8     2     1
 -6.8032785731475531E-01 a      1262     1     8     2     2
 -4.5264193678599257E-01 a      1263     1     8     2     3
 -6.4900464192015761E-01 a      1264     1     8     2     4
  2.5719530872170765E-01 a      1265     1     8     2     5
  1.0297092884097097E+00 a      1266     1     8     2     6
 -2.2929599736139106E-01 a      1267     1     8     2     7
  6.4838057958328987E-01 a      1268     1     8     2     8
 -6.0300819765552391E-02 a      1269     1     8     2     9
  1.9983242600391693E+00 a      1270     1     8     2    10
 -4.4267566104497963E-01 a      1271     1     8     2    11
  2.2533859628644692E-01 a      1272     1     8     2    12
  7.0678824192450862E-01 a      1273     1     8     2    13
  1.2474792305826028E+00 a      1274     1     8     2    14
 -9.7442783347169940E-03 a      1275     1     8     2    15
 -2.9340103120269911E+00 a      1276     1     9     2     1
 -2.1593173465766280E-01 a      1277     1     9     2     2
 -6.7299014715139138E-01 a      1278     1     9     2     3
 -1.5314783079680974E+00 a      1279     1     9     2     4
  1.1168260961970045E+00 a      1280     1     9     2     5
  1.2837856851091263E+00 a      1281     1     9     2     6
  1.9796566212184343E+00 a      1282     1     9     2     7
  1.9683412929483274E-01 a      1283     1     9     2     8
  2.3248775097692659E-01 a      1284     1     9     2     9
 -1.6577201728827146E-01 a      1285     1     9     2    10
  2.2327551605382219E+00 a      1286     1     9     2    11
  8.5005465622406207E-01 a      1287     1     9     2    12
 -1.9432477345673655E+00 a      1288     1     9     2    13
 -2.2488174207003429E+00 a      1289     1     9     2    14
  2.6244203191046189E+00 a      1290     1     9     2    15
  2.7074699961041815E+00 a      1291     1    10     2     1
  1.4865939006305571E+00 a      1292     1    10     2     2
 -8.1147458523372684E-01 a      1293     1    10     2     3
  1.1218070083104272E+00 a      1294     1    10     2     4
 -4.8476806767962582E-01 a      1295     1    10     2     5
 -7.4992803547446074E-01 a      1296     1    10     2     6
 -5.2564047225530808E-01 a      1297     1    10     2     7
 -8.9820598845550681E-01 a      1298     1    10     2     8
  8.7115388612422673E-01 a      1299     1    10     2     9
  1.5205999910864774E+00 a      1300     1    10     2    10
  4.2656747518114041E-01 a      1301     1    10     2    11
 -3.0721495915410368E-01 a      1302     1    10     2    12
  1.3186240172214405E+00 a      1303     1    10     2    13
 -2.2668202538804350E+00 a      1304     1    10     2    14
  1.2611128699430576E+00 a      1305     1    10     2    15
 -2.2525989082094249E+00 a      1306     1    11     2     1
 -5.4218585867613925E-02 a      1307     1    11     2     2
  1.1871579848005631E+00 a      1308     1    11     2     3
  1.9753654567458048E+00 a      1309     1    11     2     4
 -1.2897361170891877E+00 a      1310     1    11     2     5
 -1.4848614100836552E-01 a      1311     1    11     2     6
  3.7260188420866280E-01 a      1312     1    11     2     7
  2.3070866775363991E-02 a      1313     1    11     2     8
 -1.1579815695980593E+00 a      1314     1    11     2     9
 -2.9584878583288114E+00 a      1315     1    11     2    10
  1.0162164620936509E+00 a      1316     1    11     2    11
 -2.3033336626147460E+00 a      1317     1    11     2    12
  2.2958523770765611E+00 a      1318     1    11     2    13
 -1.1082105970875094E+00 a      1319     1    11     2    14
  7.4261839294530141E-01 a      1320     1    11     2    15
 -1.6083621712928775E+00 a      1321     1    12     2     1
 -8.7441980048163825E-01 a      1322     1    12     2     2
  1.9512878704610331E-01 a      1323     1    12     2     3
 -6.1561657746132903E-01 a      1324     1    12     2     4
  1.1825793100782795E-02 a      1325     1    12     2     5
 -4.8499911445139127E-01 a      1326     1    12     2     6
  9.4078619075951619E-01 a      1327     1    12     2     7
 -7.5630978585201028E-02 a      1328     1    12     2     8
  7.6629415556524572E-01 a      1329     1    12     2     9
  1.2604967408439709E+00 a      1330     1    12     2    10
  6.6688452573259538E-01 a      1331     1    12     2    11
 -3.4794534907274643E-01 a      1332     1    12     2    12
  5.1180659894790392E-01 a      1333     1    12     2    13
 -4.8556772492574768E-01 a      1334     1    12     2    14
  1.6768843246671898E+00 a      1335     1    12     2    15
 -1.2397862350753046E+00 a      1336     1    13     2     1
  2.2361195660471617E-01 a      1337     1    13     2     2
  1.8879296682660107E-01 a      1338     1    13     2     3
 -1.0656731030317694E+00 a      1339     1    13     2     4
 -8.2500171402652631E-02 a      1340     1    13     2     5
 -8.2846002921620054E-01 a      1341     1    13     2     6
  7.8168031304552144E-01 a      1342     1    13     2     7
  1.6306297418674218E+00 a      1343     1    13     2     8
 -4.3971283702515623E-01 a      1344     1    13     2     9
 -1.1407190105969807E+00 a      1345     1    13     2    10
 -8.7495756461795882E-01 a      1346     1    13     2    11
  7.4735927374561639E-01 a      1347     1    13     2    12
 -9.7864021386449185E-01 a      1348     1    13     2    13
 -1.8772923248817891E-01 a      1349     1    13     2    14
  9.3714906905085749E-01 a      1350     1    13     2    15
 -1.4350204127849224E+00 a      1351     1    14     2     1
 -1.0037322231217574E+00 a      1352     1    14     2     2
 -6.1657668447764180E-01 a      1353     1    14     2     3
 -1.3741535685332940E+00 a      1354     1    14     2     4
  5.3415427866626730E-01 a      1355     1    14     2     5
 -2.0018408016740192E+00 a      1356     1    14     2     6
  2.1408684205663522E+00 a      1357     1    14     2     7
  1.3306676681270739E+00 a      1358     1    14     2     8
  9.1078378043459085E-01 a      1359     1    14     2     9
  1.0532917617161011E+00 a      1360     1    14     2    10
 -1.3880164443846701E-01 a      1361     1    14     2    11
  1.9211277466746557E-01 a      1362     1    14     2    12
 -1.2311152019817302E+00 a      1363     1    14     2    13
 -1.0025470250745765E+00 a      1364     1    14     2    14
  1.8313326614892325E+00 a      1365     1    14     2    15
 -2.0531750839546292E-02 a      1366     1    15     2     1
  4.1991519245605508E-01 a      1367     1    15     2     2
 -7.9576353728353000E-01 a      1368     1    15     2     3
 -2.1511107316152618E+00 a      1369     1    15     2     4
  2.2221425301638988E+00 a      1370     1    15     2     5
  5.6877525804161599E-01 a      1371     1    15     2     6
  5.6918150080511176E-01 a      1372     1    15     2     7
 -2.1662964143445743E-01 a      1373     1    15     2     8
  5.3449471836382711E-01 a      1374     1    15     2     9
  7.9271684539645559E-01 a      1375     1    15     2    10
  2.5444013481048433E-01 a      1376     1    15     2    11
 -2.2167157135822271E-01 a      1377     1    15     2    12
  2.5560675695684281E+00 a      1378     1    15     2    13
 -8.5140199886002160E-02 a      1379     1    15     2    14
  6.6353749085011904E-01 a      1380     1    15     2    15
  1.8765257948129660E-01 b      1381     2     1
  9.5424919007807774E-01 b      1382     2     2
 -8.1894158691958141E-01 b      1383     2     3
  1.5023729236705368E+00 b      1384     2     4
 -8.1043259478463892E-01 b      1385     2     5
 -1.6387407707763404E+00 b      1386     2     6
 -4.3636027493954971E-01 b      1387     2     7
  7.6846833186679342E-01 b      1388     2     8
 -3.3748996192155911E-01 b      1389     2     9
 -4.7008938824424157E-01 b      1390     2    10
 -1.2613470264642892E+00 b      1391     2    11
  1.9750047490902727E+00 b      1392     2    12
  2.0033980703583723E+00 b      1393     2    13
  1.2095928014554576E+00 b      1394     2    14
 -2.1709125019154238E+00 b      1395     2    15
  3.6435618942600279E-01 a      1396     2     1     3     1
  1.4841768443944721E+00 a      1397     2     2     3     1
  2.2696092317362204E+00 a      1398     2     3     3     1
 -7.6861839527630105E-01 a      1399     2     4     3     1
 -1.2243512053020373E+00 a      1400     2     5     3     1
  7.7287741777909291E-01 a      1401     2     6     3     1
  1.0844560568133841E+00 a      1402     2     7     3     1
  5.5226588668529086E-01 a      1403     2     8     3     1
  1.3262957361831897E+00 a      1404     2     9     3     1
 -2.3060509086023193E-01 a      1405     2    10     3     1
  7.1198715225418763E-01 a      1406     2    11     3     1
 -4.8558350147407797E-01 a      1407     2    12     3     1
 -6.3459159029289269E-01 a      1408     2    13     3     1
  7.8318414719188278E-01 a      1409     2    14     3     1
 -1.2663949607474911E+00 a      1410     2    15     3     1
 -6.5632415983820869E-01 b      1411     3     1
